<?xml version="1.0"?>
<opencv_storage>
<cascade>
  <stageType>BOOST</stageType>
  <featureType>HAAR</featureType>
  <height>50</height>
  <width>50</width>
  <stageParams>
    <boostType>GAB</boostType>
    <minHitRate>9.9500000476837158e-01</minHitRate>
    <maxFalseAlarm>5.0000000000000000e-01</maxFalseAlarm>
    <weightTrimRate>9.4999999999999996e-01</weightTrimRate>
    <maxDepth>1</maxDepth>
    <maxWeakCount>100</maxWeakCount></stageParams>
  <featureParams>
    <maxCatCount>0</maxCatCount>
    <featSize>1</featSize>
    <mode>BASIC</mode></featureParams>
  <stageNum>20</stageNum>
  <stages>
    <!-- stage 0 -->
    <_>
      <maxWeakCount>7</maxWeakCount>
      <stageThreshold>-2.0764379501342773e+00</stageThreshold>
      <weakClassifiers>
        <_>
          <internalNodes>
            0 -1 6 -1.1654984205961227e-01</internalNodes>
          <leafValues>
            5.2173912525177002e-01 -9.0785646438598633e-01</leafValues></_>
        <_>
          <internalNodes>
            0 -1 48 -8.2134634256362915e-02</internalNodes>
          <leafValues>
            1.6866132616996765e-01 -6.8476772308349609e-01</leafValues></_>
        <_>
          <internalNodes>
            0 -1 213 -2.7255437453277409e-04</internalNodes>
          <leafValues>
            -9.3979042768478394e-01 1.1081206053495407e-01</leafValues></_>
        <_>
          <internalNodes>
            0 -1 227 6.9978908868506551e-05</internalNodes>
          <leafValues>
            1.4860168099403381e-01 -7.8885257244110107e-01</leafValues></_>
        <_>
          <internalNodes>
            0 -1 222 -1.4693752746097744e-04</internalNodes>
          <leafValues>
            -6.4530181884765625e-01 2.4568955600261688e-01</leafValues></_>
        <_>
          <internalNodes>
            0 -1 43 -8.1514660269021988e-03</internalNodes>
          <leafValues>
            6.2264108657836914e-01 -2.7765247225761414e-01</leafValues></_>
        <_>
          <internalNodes>
            0 -1 239 3.9064558222889900e-04</internalNodes>
          <leafValues>
            2.2618955373764038e-01 -7.4541598558425903e-01</leafValues></_></weakClassifiers></_>
    <!-- stage 1 -->
    <_>
      <maxWeakCount>5</maxWeakCount>
      <stageThreshold>-1.6403802633285522e+00</stageThreshold>
      <weakClassifiers>
        <_>
          <internalNodes>
            0 -1 3 -9.5102310180664062e-02</internalNodes>
          <leafValues>
            6.6887414455413818e-01 -9.2776966094970703e-01</leafValues></_>
        <_>
          <internalNodes>
            0 -1 13 -5.7987518608570099e-02</internalNodes>
          <leafValues>
            3.6363118886947632e-01 -7.2452193498611450e-01</leafValues></_>
        <_>
          <internalNodes>
            0 -1 16 4.5804295688867569e-02</internalNodes>
          <leafValues>
            -4.6169474720954895e-01 7.4995875358581543e-01</leafValues></_>
        <_>
          <internalNodes>
            0 -1 249 -4.2157739517278969e-04</internalNodes>
          <leafValues>
            -9.0142494440078735e-01 2.9977667331695557e-01</leafValues></_>
        <_>
          <internalNodes>
            0 -1 253 -3.7497852463275194e-04</internalNodes>
          <leafValues>
            -9.1432374715805054e-01 1.8615187704563141e-01</leafValues></_></weakClassifiers></_>
    <!-- stage 2 -->
    <_>
      <maxWeakCount>9</maxWeakCount>
      <stageThreshold>-1.9251124858856201e+00</stageThreshold>
      <weakClassifiers>
        <_>
          <internalNodes>
            0 -1 12 -1.4812976121902466e-01</internalNodes>
          <leafValues>
            5.7264959812164307e-01 -8.9630341529846191e-01</leafValues></_>
        <_>
          <internalNodes>
            0 -1 47 4.1281089186668396e-02</internalNodes>
          <leafValues>
            -6.4575487375259399e-01 3.7355226278305054e-01</leafValues></_>
        <_>
          <internalNodes>
            0 -1 10 3.7420548498630524e-02</internalNodes>
          <leafValues>
            -3.1875529885292053e-01 6.1977559328079224e-01</leafValues></_>
        <_>
          <internalNodes>
            0 -1 229 -2.5205075507983565e-04</internalNodes>
          <leafValues>
            -8.0739569664001465e-01 1.9034968316555023e-01</leafValues></_>
        <_>
          <internalNodes>
            0 -1 64 -4.2599029839038849e-02</internalNodes>
          <leafValues>
            5.0306981801986694e-01 -3.0559384822845459e-01</leafValues></_>
        <_>
          <internalNodes>
            0 -1 46 -3.9950899779796600e-02</internalNodes>
          <leafValues>
            5.7602930068969727e-01 -2.1656827628612518e-01</leafValues></_>
        <_>
          <internalNodes>
            0 -1 147 -6.6613501985557377e-05</internalNodes>
          <leafValues>
            -6.1030948162078857e-01 2.4005405604839325e-01</leafValues></_>
        <_>
          <internalNodes>
            0 -1 44 1.3671378605067730e-02</internalNodes>
          <leafValues>
            -1.8400219082832336e-01 7.6238381862640381e-01</leafValues></_>
        <_>
          <internalNodes>
            0 -1 207 1.7931102775037289e-04</internalNodes>
          <leafValues>
            2.7067616581916809e-01 -6.0674619674682617e-01</leafValues></_></weakClassifiers></_>
    <!-- stage 3 -->
    <_>
      <maxWeakCount>8</maxWeakCount>
      <stageThreshold>-1.7798420190811157e+00</stageThreshold>
      <weakClassifiers>
        <_>
          <internalNodes>
            0 -1 11 -1.2820799648761749e-01</internalNodes>
          <leafValues>
            5.4545456171035767e-01 -8.7500000000000000e-01</leafValues></_>
        <_>
          <internalNodes>
            0 -1 123 -3.5040408372879028e-02</internalNodes>
          <leafValues>
            4.1900542378425598e-01 -5.5087417364120483e-01</leafValues></_>
        <_>
          <internalNodes>
            0 -1 193 2.5040435139089823e-04</internalNodes>
          <leafValues>
            1.6201317310333252e-01 -6.6201561689376831e-01</leafValues></_>
        <_>
          <internalNodes>
            0 -1 60 -1.8020717427134514e-02</internalNodes>
          <leafValues>
            5.4493123292922974e-01 -2.7787151932716370e-01</leafValues></_>
        <_>
          <internalNodes>
            0 -1 217 -1.5274470206350088e-04</internalNodes>
          <leafValues>
            -6.9852149486541748e-01 1.9837771356105804e-01</leafValues></_>
        <_>
          <internalNodes>
            0 -1 187 8.8181448518298566e-05</internalNodes>
          <leafValues>
            2.0022624731063843e-01 -5.9768784046173096e-01</leafValues></_>
        <_>
          <internalNodes>
            0 -1 189 -1.3208299642428756e-03</internalNodes>
          <leafValues>
            -7.0635086297988892e-01 1.5493465960025787e-01</leafValues></_>
        <_>
          <internalNodes>
            0 -1 232 -2.2398406872525811e-04</internalNodes>
          <leafValues>
            -6.0218864679336548e-01 1.4373393356800079e-01</leafValues></_></weakClassifiers></_>
    <!-- stage 4 -->
    <_>
      <maxWeakCount>7</maxWeakCount>
      <stageThreshold>-1.7883481979370117e+00</stageThreshold>
      <weakClassifiers>
        <_>
          <internalNodes>
            0 -1 58 -1.2634674087166786e-02</internalNodes>
          <leafValues>
            5.6164383888244629e-01 -8.6553829908370972e-01</leafValues></_>
        <_>
          <internalNodes>
            0 -1 8 -1.3384935259819031e-01</internalNodes>
          <leafValues>
            2.0421706140041351e-01 -6.3992482423782349e-01</leafValues></_>
        <_>
          <internalNodes>
            0 -1 172 -8.1595382653176785e-05</internalNodes>
          <leafValues>
            2.3791757225990295e-01 -4.5469728112220764e-01</leafValues></_>
        <_>
          <internalNodes>
            0 -1 38 1.2924447655677795e-02</internalNodes>
          <leafValues>
            1.1588536947965622e-01 -8.6351543664932251e-01</leafValues></_>
        <_>
          <internalNodes>
            0 -1 134 3.9024770259857178e-02</internalNodes>
          <leafValues>
            -1.5450491011142731e-01 6.5407526493072510e-01</leafValues></_>
        <_>
          <internalNodes>
            0 -1 237 4.2828596633626148e-05</internalNodes>
          <leafValues>
            1.9553136825561523e-01 -5.9784084558486938e-01</leafValues></_>
        <_>
          <internalNodes>
            0 -1 252 2.6838513349503046e-06</internalNodes>
          <leafValues>
            -3.7986001372337341e-01 3.0168634653091431e-01</leafValues></_></weakClassifiers></_>
    <!-- stage 5 -->
    <_>
      <maxWeakCount>13</maxWeakCount>
      <stageThreshold>-2.1610856056213379e+00</stageThreshold>
      <weakClassifiers>
        <_>
          <internalNodes>
            0 -1 9 -1.1528592556715012e-01</internalNodes>
          <leafValues>
            5.5555558204650879e-01 -8.4686774015426636e-01</leafValues></_>
        <_>
          <internalNodes>
            0 -1 109 -7.4936226010322571e-02</internalNodes>
          <leafValues>
            5.3707718849182129e-01 -4.7870576381683350e-01</leafValues></_>
        <_>
          <internalNodes>
            0 -1 149 -1.6685068840160966e-04</internalNodes>
          <leafValues>
            -5.4789584875106812e-01 2.2221893072128296e-01</leafValues></_>
        <_>
          <internalNodes>
            0 -1 130 2.4827590095810592e-04</internalNodes>
          <leafValues>
            2.0399500429630280e-01 -5.9693062305450439e-01</leafValues></_>
        <_>
          <internalNodes>
            0 -1 62 -5.2343374118208885e-03</internalNodes>
          <leafValues>
            6.1619865894317627e-01 -1.8042057752609253e-01</leafValues></_>
        <_>
          <internalNodes>
            0 -1 218 -7.0898982812650502e-05</internalNodes>
          <leafValues>
            -7.2017681598663330e-01 1.6436731815338135e-01</leafValues></_>
        <_>
          <internalNodes>
            0 -1 260 -2.1186520461924374e-04</internalNodes>
          <leafValues>
            -4.7453016042709351e-01 2.1887038648128510e-01</leafValues></_>
        <_>
          <internalNodes>
            0 -1 127 -5.6653698266018182e-05</internalNodes>
          <leafValues>
            -5.2379083633422852e-01 1.8325792253017426e-01</leafValues></_>
        <_>
          <internalNodes>
            0 -1 15 -1.4152813702821732e-02</internalNodes>
          <leafValues>
            6.9192439317703247e-01 -1.5206719934940338e-01</leafValues></_>
        <_>
          <internalNodes>
            0 -1 23 -4.4758120202459395e-04</internalNodes>
          <leafValues>
            -5.7902830839157104e-01 2.1908774971961975e-01</leafValues></_>
        <_>
          <internalNodes>
            0 -1 121 5.5355438962578773e-04</internalNodes>
          <leafValues>
            -2.7681350708007812e-01 3.5526683926582336e-01</leafValues></_>
        <_>
          <internalNodes>
            0 -1 118 5.2520128519972786e-05</internalNodes>
          <leafValues>
            1.6251951456069946e-01 -6.1528569459915161e-01</leafValues></_>
        <_>
          <internalNodes>
            0 -1 206 7.8440396464429796e-05</internalNodes>
          <leafValues>
            1.4430156350135803e-01 -6.3356643915176392e-01</leafValues></_></weakClassifiers></_>
    <!-- stage 6 -->
    <_>
      <maxWeakCount>13</maxWeakCount>
      <stageThreshold>-1.8561062812805176e+00</stageThreshold>
      <weakClassifiers>
        <_>
          <internalNodes>
            0 -1 40 -2.6111634448170662e-02</internalNodes>
          <leafValues>
            8.0952382087707520e-01 -8.3386874198913574e-01</leafValues></_>
        <_>
          <internalNodes>
            0 -1 67 9.8360344767570496e-02</internalNodes>
          <leafValues>
            -5.4133617877960205e-01 1.7064952850341797e-01</leafValues></_>
        <_>
          <internalNodes>
            0 -1 219 1.7186743207275867e-04</internalNodes>
          <leafValues>
            1.1727659404277802e-01 -5.9660458564758301e-01</leafValues></_>
        <_>
          <internalNodes>
            0 -1 266 7.7088798207114451e-06</internalNodes>
          <leafValues>
            1.6049492359161377e-01 -4.9991232156753540e-01</leafValues></_>
        <_>
          <internalNodes>
            0 -1 78 4.9100883305072784e-02</internalNodes>
          <leafValues>
            1.6860328614711761e-01 -5.7822066545486450e-01</leafValues></_>
        <_>
          <internalNodes>
            0 -1 223 1.3488646072801203e-04</internalNodes>
          <leafValues>
            1.5943749248981476e-01 -5.6375235319137573e-01</leafValues></_>
        <_>
          <internalNodes>
            0 -1 159 -3.8257050327956676e-03</internalNodes>
          <leafValues>
            6.5713256597518921e-01 -1.3491314649581909e-01</leafValues></_>
        <_>
          <internalNodes>
            0 -1 148 8.0011086538434029e-05</internalNodes>
          <leafValues>
            1.4787964522838593e-01 -6.8310707807540894e-01</leafValues></_>
        <_>
          <internalNodes>
            0 -1 45 3.8555137813091278e-02</internalNodes>
          <leafValues>
            -1.4020127058029175e-01 6.1980473995208740e-01</leafValues></_>
        <_>
          <internalNodes>
            0 -1 39 9.1883212007815018e-06</internalNodes>
          <leafValues>
            1.9491030275821686e-01 -4.8006594181060791e-01</leafValues></_>
        <_>
          <internalNodes>
            0 -1 183 -3.7716483348049223e-05</internalNodes>
          <leafValues>
            2.4583342671394348e-01 -3.3598065376281738e-01</leafValues></_>
        <_>
          <internalNodes>
            0 -1 32 1.4276619185693562e-04</internalNodes>
          <leafValues>
            1.7530842125415802e-01 -4.8335710167884827e-01</leafValues></_>
        <_>
          <internalNodes>
            0 -1 103 -6.6051231697201729e-03</internalNodes>
          <leafValues>
            4.7809687256813049e-01 -1.7004153132438660e-01</leafValues></_></weakClassifiers></_>
    <!-- stage 7 -->
    <_>
      <maxWeakCount>12</maxWeakCount>
      <stageThreshold>-1.8577344417572021e+00</stageThreshold>
      <weakClassifiers>
        <_>
          <internalNodes>
            0 -1 1 9.0325638651847839e-02</internalNodes>
          <leafValues>
            -8.4115189313888550e-01 2.3404255509376526e-01</leafValues></_>
        <_>
          <internalNodes>
            0 -1 41 -7.1084454655647278e-02</internalNodes>
          <leafValues>
            1.3813610374927521e-01 -5.0310283899307251e-01</leafValues></_>
        <_>
          <internalNodes>
            0 -1 254 -1.6740148566896096e-05</internalNodes>
          <leafValues>
            -5.1317781209945679e-01 1.6169582307338715e-01</leafValues></_>
        <_>
          <internalNodes>
            0 -1 221 5.8794175856746733e-05</internalNodes>
          <leafValues>
            1.0973773896694183e-01 -7.0259165763854980e-01</leafValues></_>
        <_>
          <internalNodes>
            0 -1 247 2.9718089848756790e-02</internalNodes>
          <leafValues>
            1.2085370719432831e-01 -6.7839562892913818e-01</leafValues></_>
        <_>
          <internalNodes>
            0 -1 216 -1.5896145254373550e-02</internalNodes>
          <leafValues>
            -3.8834336400032043e-01 1.9414401054382324e-01</leafValues></_>
        <_>
          <internalNodes>
            0 -1 224 -6.9643567258026451e-05</internalNodes>
          <leafValues>
            -4.1880267858505249e-01 1.7037688195705414e-01</leafValues></_>
        <_>
          <internalNodes>
            0 -1 208 1.5006167814135551e-04</internalNodes>
          <leafValues>
            1.6370479762554169e-01 -4.1960605978965759e-01</leafValues></_>
        <_>
          <internalNodes>
            0 -1 69 3.6879297113046050e-04</internalNodes>
          <leafValues>
            -1.9342049956321716e-01 4.0054225921630859e-01</leafValues></_>
        <_>
          <internalNodes>
            0 -1 75 -3.2498906366527081e-03</internalNodes>
          <leafValues>
            4.1573971509933472e-01 -2.1953310072422028e-01</leafValues></_>
        <_>
          <internalNodes>
            0 -1 198 -6.0573780501727015e-05</internalNodes>
          <leafValues>
            -3.8389012217521667e-01 2.1907025575637817e-01</leafValues></_>
        <_>
          <internalNodes>
            0 -1 65 -1.1732323036994785e-04</internalNodes>
          <leafValues>
            -4.4564315676689148e-01 1.7920626699924469e-01</leafValues></_></weakClassifiers></_>
    <!-- stage 8 -->
    <_>
      <maxWeakCount>15</maxWeakCount>
      <stageThreshold>-1.7369840145111084e+00</stageThreshold>
      <weakClassifiers>
        <_>
          <internalNodes>
            0 -1 4 1.7840445041656494e-01</internalNodes>
          <leafValues>
            -8.3119267225265503e-01 6.0000002384185791e-01</leafValues></_>
        <_>
          <internalNodes>
            0 -1 136 1.7984799342229962e-04</internalNodes>
          <leafValues>
            -5.3955721855163574e-01 -6.2790460884571075e-02</leafValues></_>
        <_>
          <internalNodes>
            0 -1 203 -2.0929316815454513e-04</internalNodes>
          <leafValues>
            -5.1411336660385132e-01 1.1927725374698639e-01</leafValues></_>
        <_>
          <internalNodes>
            0 -1 178 -2.6131984591484070e-01</internalNodes>
          <leafValues>
            -9.1150432825088501e-01 7.3374241590499878e-02</leafValues></_>
        <_>
          <internalNodes>
            0 -1 194 -1.1546769383130595e-04</internalNodes>
          <leafValues>
            -4.4054952263832092e-01 1.8112628161907196e-01</leafValues></_>
        <_>
          <internalNodes>
            0 -1 120 4.2005663271993399e-04</internalNodes>
          <leafValues>
            -2.2031281888484955e-01 3.0637118220329285e-01</leafValues></_>
        <_>
          <internalNodes>
            0 -1 112 1.8888813792727888e-04</internalNodes>
          <leafValues>
            1.8592666089534760e-01 -4.4181695580482483e-01</leafValues></_>
        <_>
          <internalNodes>
            0 -1 131 1.7444862169213593e-04</internalNodes>
          <leafValues>
            1.4799679815769196e-01 -4.9348723888397217e-01</leafValues></_>
        <_>
          <internalNodes>
            0 -1 21 -1.0334419086575508e-02</internalNodes>
          <leafValues>
            7.5840502977371216e-01 -1.3200680911540985e-01</leafValues></_>
        <_>
          <internalNodes>
            0 -1 192 1.1123860895168036e-04</internalNodes>
          <leafValues>
            -2.3660765588283539e-01 3.1787699460983276e-01</leafValues></_>
        <_>
          <internalNodes>
            0 -1 128 3.3408027775294613e-06</internalNodes>
          <leafValues>
            -3.0796712636947632e-01 2.3574204742908478e-01</leafValues></_>
        <_>
          <internalNodes>
            0 -1 122 -3.9484762965003029e-05</internalNodes>
          <leafValues>
            -4.2942428588867188e-01 1.6533820331096649e-01</leafValues></_>
        <_>
          <internalNodes>
            0 -1 150 2.9966467991471291e-03</internalNodes>
          <leafValues>
            -1.1949267983436584e-01 7.0359212160110474e-01</leafValues></_>
        <_>
          <internalNodes>
            0 -1 246 -7.0075278927106410e-05</internalNodes>
          <leafValues>
            -5.3861802816390991e-01 1.5615481138229370e-01</leafValues></_>
        <_>
          <internalNodes>
            0 -1 99 -6.1871651560068130e-03</internalNodes>
          <leafValues>
            5.8213227987289429e-01 -1.4907163381576538e-01</leafValues></_></weakClassifiers></_>
    <!-- stage 9 -->
    <_>
      <maxWeakCount>13</maxWeakCount>
      <stageThreshold>-1.8215672969818115e+00</stageThreshold>
      <weakClassifiers>
        <_>
          <internalNodes>
            0 -1 7 -2.8101265430450439e-01</internalNodes>
          <leafValues>
            5.5555558204650879e-01 -8.2951420545578003e-01</leafValues></_>
        <_>
          <internalNodes>
            0 -1 226 -2.3763852368574589e-05</internalNodes>
          <leafValues>
            -9.7317628562450409e-02 -5.6427347660064697e-01</leafValues></_>
        <_>
          <internalNodes>
            0 -1 182 -3.9173123695945833e-06</internalNodes>
          <leafValues>
            2.0329463481903076e-01 -3.0690583586692810e-01</leafValues></_>
        <_>
          <internalNodes>
            0 -1 117 -3.4098612377420068e-04</internalNodes>
          <leafValues>
            -5.0670361518859863e-01 1.2005883455276489e-01</leafValues></_>
        <_>
          <internalNodes>
            0 -1 68 -4.1279330616816878e-04</internalNodes>
          <leafValues>
            2.8988349437713623e-01 -2.1438775956630707e-01</leafValues></_>
        <_>
          <internalNodes>
            0 -1 195 -1.8061447190120816e-04</internalNodes>
          <leafValues>
            -5.1419317722320557e-01 1.3277648389339447e-01</leafValues></_>
        <_>
          <internalNodes>
            0 -1 124 4.3315872550010681e-02</internalNodes>
          <leafValues>
            -9.1470248997211456e-02 6.7337769269943237e-01</leafValues></_>
        <_>
          <internalNodes>
            0 -1 199 -1.5325766071327962e-05</internalNodes>
          <leafValues>
            2.6107752323150635e-01 -2.6238670945167542e-01</leafValues></_>
        <_>
          <internalNodes>
            0 -1 81 2.2983773669693619e-04</internalNodes>
          <leafValues>
            1.3403649628162384e-01 -4.1664811968803406e-01</leafValues></_>
        <_>
          <internalNodes>
            0 -1 54 3.0726363183930516e-04</internalNodes>
          <leafValues>
            -2.3818701505661011e-01 3.1498482823371887e-01</leafValues></_>
        <_>
          <internalNodes>
            0 -1 135 -1.7520913388580084e-04</internalNodes>
          <leafValues>
            -4.1334220767021179e-01 1.5926387906074524e-01</leafValues></_>
        <_>
          <internalNodes>
            0 -1 49 -8.7462095543742180e-03</internalNodes>
          <leafValues>
            4.6005254983901978e-01 -1.4135245978832245e-01</leafValues></_>
        <_>
          <internalNodes>
            0 -1 101 -1.4259146701078862e-04</internalNodes>
          <leafValues>
            -3.4196099638938904e-01 2.2281488776206970e-01</leafValues></_></weakClassifiers></_>
    <!-- stage 10 -->
    <_>
      <maxWeakCount>16</maxWeakCount>
      <stageThreshold>-1.7648472785949707e+00</stageThreshold>
      <weakClassifiers>
        <_>
          <internalNodes>
            0 -1 51 1.7522436380386353e-01</internalNodes>
          <leafValues>
            -8.2557076215744019e-01 8.0000001192092896e-01</leafValues></_>
        <_>
          <internalNodes>
            0 -1 102 -2.6723030954599380e-02</internalNodes>
          <leafValues>
            1.2111709266901016e-01 -4.3564775586128235e-01</leafValues></_>
        <_>
          <internalNodes>
            0 -1 165 3.5015185130760074e-04</internalNodes>
          <leafValues>
            -2.3829907178878784e-01 2.5617465376853943e-01</leafValues></_>
        <_>
          <internalNodes>
            0 -1 57 -7.6038973929826170e-05</internalNodes>
          <leafValues>
            -4.5516285300254822e-01 1.4736342430114746e-01</leafValues></_>
        <_>
          <internalNodes>
            0 -1 57 4.5994005631655455e-05</internalNodes>
          <leafValues>
            2.0888425409793854e-01 -3.0959945917129517e-01</leafValues></_>
        <_>
          <internalNodes>
            0 -1 100 -6.3027568103279918e-05</internalNodes>
          <leafValues>
            2.4616070091724396e-01 -2.6037260890007019e-01</leafValues></_>
        <_>
          <internalNodes>
            0 -1 143 8.0875994171947241e-05</internalNodes>
          <leafValues>
            1.2421873211860657e-01 -5.4913324117660522e-01</leafValues></_>
        <_>
          <internalNodes>
            0 -1 240 2.6039866497740149e-05</internalNodes>
          <leafValues>
            -2.6763248443603516e-01 2.5096958875656128e-01</leafValues></_>
        <_>
          <internalNodes>
            0 -1 210 -1.3857355224899948e-04</internalNodes>
          <leafValues>
            2.6101601123809814e-01 -2.4407933652400970e-01</leafValues></_>
        <_>
          <internalNodes>
            0 -1 202 1.7358974218950607e-05</internalNodes>
          <leafValues>
            1.4521250128746033e-01 -4.3059909343719482e-01</leafValues></_>
        <_>
          <internalNodes>
            0 -1 170 1.6905949451029301e-03</internalNodes>
          <leafValues>
            -1.0884404927492142e-01 5.8003938198089600e-01</leafValues></_>
        <_>
          <internalNodes>
            0 -1 113 -1.5563046326860785e-04</internalNodes>
          <leafValues>
            -3.5808694362640381e-01 1.6219602525234222e-01</leafValues></_>
        <_>
          <internalNodes>
            0 -1 104 -2.1908897906541824e-05</internalNodes>
          <leafValues>
            2.0174762606620789e-01 -2.7436453104019165e-01</leafValues></_>
        <_>
          <internalNodes>
            0 -1 94 -4.2502215364947915e-05</internalNodes>
          <leafValues>
            -6.3912475109100342e-01 9.1841660439968109e-02</leafValues></_>
        <_>
          <internalNodes>
            0 -1 153 4.5077955292072147e-05</internalNodes>
          <leafValues>
            -2.5053402781486511e-01 2.4539135396480560e-01</leafValues></_>
        <_>
          <internalNodes>
            0 -1 108 -6.5002922201529145e-04</internalNodes>
          <leafValues>
            3.9296650886535645e-01 -1.4934544265270233e-01</leafValues></_></weakClassifiers></_>
    <!-- stage 11 -->
    <_>
      <maxWeakCount>17</maxWeakCount>
      <stageThreshold>-1.7043061256408691e+00</stageThreshold>
      <weakClassifiers>
        <_>
          <internalNodes>
            0 -1 2 -1.5595042705535889e-01</internalNodes>
          <leafValues>
            1. -8.2565039396286011e-01</leafValues></_>
        <_>
          <internalNodes>
            0 -1 157 6.8045451371290255e-06</internalNodes>
          <leafValues>
            -1.7559538781642914e-01 -6.7394071817398071e-01</leafValues></_>
        <_>
          <internalNodes>
            0 -1 151 1.8619408365339041e-04</internalNodes>
          <leafValues>
            1.3288415968418121e-01 -3.8235607743263245e-01</leafValues></_>
        <_>
          <internalNodes>
            0 -1 151 -7.4064701038878411e-05</internalNodes>
          <leafValues>
            -3.1273016333580017e-01 2.8610002994537354e-01</leafValues></_>
        <_>
          <internalNodes>
            0 -1 132 -2.3326380178332329e-03</internalNodes>
          <leafValues>
            3.1415334343910217e-01 -2.0610076189041138e-01</leafValues></_>
        <_>
          <internalNodes>
            0 -1 0 -4.0723527781665325e-03</internalNodes>
          <leafValues>
            4.4673207402229309e-01 -1.1618942767381668e-01</leafValues></_>
        <_>
          <internalNodes>
            0 -1 235 -8.5057385149411857e-05</internalNodes>
          <leafValues>
            -5.4565733671188354e-01 1.0034511983394623e-01</leafValues></_>
        <_>
          <internalNodes>
            0 -1 160 2.0584349986165762e-03</internalNodes>
          <leafValues>
            -7.2056815028190613e-02 7.3350763320922852e-01</leafValues></_>
        <_>
          <internalNodes>
            0 -1 259 1.6130901713040657e-05</internalNodes>
          <leafValues>
            1.8159364163875580e-01 -3.6382693052291870e-01</leafValues></_>
        <_>
          <internalNodes>
            0 -1 257 -1.1426288983784616e-04</internalNodes>
          <leafValues>
            2.4018469452857971e-01 -2.2102543711662292e-01</leafValues></_>
        <_>
          <internalNodes>
            0 -1 162 6.4490159275010228e-06</internalNodes>
          <leafValues>
            1.5300112962722778e-01 -3.9348256587982178e-01</leafValues></_>
        <_>
          <internalNodes>
            0 -1 185 2.1785145509056747e-04</internalNodes>
          <leafValues>
            1.0669889301061630e-01 -5.4881429672241211e-01</leafValues></_>
        <_>
          <internalNodes>
            0 -1 201 -3.2631758131174138e-06</internalNodes>
          <leafValues>
            2.3563911020755768e-01 -2.4404123425483704e-01</leafValues></_>
        <_>
          <internalNodes>
            0 -1 141 9.1375739430077374e-05</internalNodes>
          <leafValues>
            -1.9194462895393372e-01 3.0593249201774597e-01</leafValues></_>
        <_>
          <internalNodes>
            0 -1 190 -5.0692236982285976e-05</internalNodes>
          <leafValues>
            2.4368451535701752e-01 -2.4725180864334106e-01</leafValues></_>
        <_>
          <internalNodes>
            0 -1 234 4.6958459279267117e-05</internalNodes>
          <leafValues>
            1.3700759410858154e-01 -4.3921956419944763e-01</leafValues></_>
        <_>
          <internalNodes>
            0 -1 244 -4.5446948206517845e-05</internalNodes>
          <leafValues>
            2.6037293672561646e-01 -2.3575207591056824e-01</leafValues></_></weakClassifiers></_>
    <!-- stage 12 -->
    <_>
      <maxWeakCount>16</maxWeakCount>
      <stageThreshold>-1.7788095474243164e+00</stageThreshold>
      <weakClassifiers>
        <_>
          <internalNodes>
            0 -1 142 2.3743365891277790e-03</internalNodes>
          <leafValues>
            -8.2632541656494141e-01 6.6666668653488159e-01</leafValues></_>
        <_>
          <internalNodes>
            0 -1 268 2.0934539861627854e-06</internalNodes>
          <leafValues>
            -1.7464701831340790e-01 -6.4727687835693359e-01</leafValues></_>
        <_>
          <internalNodes>
            0 -1 268 -2.0964068880857667e-06</internalNodes>
          <leafValues>
            -3.9003741741180420e-01 1.2391360849142075e-01</leafValues></_>
        <_>
          <internalNodes>
            0 -1 133 -1.0773666872410104e-04</internalNodes>
          <leafValues>
            2.3806142807006836e-01 -1.9250421226024628e-01</leafValues></_>
        <_>
          <internalNodes>
            0 -1 5 2.1443340927362442e-02</internalNodes>
          <leafValues>
            -7.9235114157199860e-02 6.4880621433258057e-01</leafValues></_>
        <_>
          <internalNodes>
            0 -1 25 -1.8621167691890150e-04</internalNodes>
          <leafValues>
            -3.2129621505737305e-01 1.7659498751163483e-01</leafValues></_>
        <_>
          <internalNodes>
            0 -1 17 1.1609456123551354e-05</internalNodes>
          <leafValues>
            2.8135329484939575e-01 -2.7021020650863647e-01</leafValues></_>
        <_>
          <internalNodes>
            0 -1 156 -5.7441217359155416e-04</internalNodes>
          <leafValues>
            2.2496417164802551e-01 -2.7200692892074585e-01</leafValues></_>
        <_>
          <internalNodes>
            0 -1 145 3.0656039598397911e-04</internalNodes>
          <leafValues>
            -1.9322472810745239e-01 2.9325309395790100e-01</leafValues></_>
        <_>
          <internalNodes>
            0 -1 83 -9.6699353889562190e-05</internalNodes>
          <leafValues>
            2.6291897892951965e-01 -2.2981192171573639e-01</leafValues></_>
        <_>
          <internalNodes>
            0 -1 55 -5.4311719723045826e-03</internalNodes>
          <leafValues>
            4.9849718809127808e-01 -1.2304706871509552e-01</leafValues></_>
        <_>
          <internalNodes>
            0 -1 168 -1.0219124378636479e-03</internalNodes>
          <leafValues>
            -6.5501034259796143e-01 9.4125203788280487e-02</leafValues></_>
        <_>
          <internalNodes>
            0 -1 84 -4.7486885450780392e-03</internalNodes>
          <leafValues>
            4.8875305056571960e-01 -1.2935481965541840e-01</leafValues></_>
        <_>
          <internalNodes>
            0 -1 248 1.7053834162652493e-03</internalNodes>
          <leafValues>
            -8.7457731366157532e-02 6.4302384853363037e-01</leafValues></_>
        <_>
          <internalNodes>
            0 -1 175 1.2597095337696373e-04</internalNodes>
          <leafValues>
            1.6573961079120636e-01 -3.9336207509040833e-01</leafValues></_>
        <_>
          <internalNodes>
            0 -1 176 -2.1886589820496738e-05</internalNodes>
          <leafValues>
            2.2610235214233398e-01 -2.9078111052513123e-01</leafValues></_></weakClassifiers></_>
    <!-- stage 13 -->
    <_>
      <maxWeakCount>17</maxWeakCount>
      <stageThreshold>-1.7090495824813843e+00</stageThreshold>
      <weakClassifiers>
        <_>
          <internalNodes>
            0 -1 90 -2.2512331604957581e-01</internalNodes>
          <leafValues>
            1. -8.2565039396286011e-01</leafValues></_>
        <_>
          <internalNodes>
            0 -1 92 -5.5809965124353766e-04</internalNodes>
          <leafValues>
            -6.9112092256546021e-01 -2.1786408126354218e-01</leafValues></_>
        <_>
          <internalNodes>
            0 -1 267 -7.8526627476094291e-06</internalNodes>
          <leafValues>
            -3.7612879276275635e-01 1.1957334727048874e-01</leafValues></_>
        <_>
          <internalNodes>
            0 -1 200 1.7305138753727078e-03</internalNodes>
          <leafValues>
            -1.0720188170671463e-01 4.4725838303565979e-01</leafValues></_>
        <_>
          <internalNodes>
            0 -1 181 2.4818431120365858e-04</internalNodes>
          <leafValues>
            1.0015974193811417e-01 -5.5991566181182861e-01</leafValues></_>
        <_>
          <internalNodes>
            0 -1 61 -1.1765727773308754e-02</internalNodes>
          <leafValues>
            2.8565326333045959e-01 -2.3553286492824554e-01</leafValues></_>
        <_>
          <internalNodes>
            0 -1 236 1.4534132787957788e-05</internalNodes>
          <leafValues>
            -2.7643200755119324e-01 2.2859035432338715e-01</leafValues></_>
        <_>
          <internalNodes>
            0 -1 24 -2.5793851818889380e-04</internalNodes>
          <leafValues>
            -3.4175288677215576e-01 1.9286876916885376e-01</leafValues></_>
        <_>
          <internalNodes>
            0 -1 27 5.2709663577843457e-05</internalNodes>
          <leafValues>
            2.0065084099769592e-01 -3.3705151081085205e-01</leafValues></_>
        <_>
          <internalNodes>
            0 -1 89 7.1521499194204807e-04</internalNodes>
          <leafValues>
            -1.6178140044212341e-01 4.7833034396171570e-01</leafValues></_>
        <_>
          <internalNodes>
            0 -1 179 -2.6162597350776196e-04</internalNodes>
          <leafValues>
            -4.6292525529861450e-01 1.3837064802646637e-01</leafValues></_>
        <_>
          <internalNodes>
            0 -1 188 2.9625539900735021e-04</internalNodes>
          <leafValues>
            -1.9109940528869629e-01 3.2339307665824890e-01</leafValues></_>
        <_>
          <internalNodes>
            0 -1 71 1.6890159167815000e-04</internalNodes>
          <leafValues>
            1.9059441983699799e-01 -3.6406651139259338e-01</leafValues></_>
        <_>
          <internalNodes>
            0 -1 167 -2.0135936792939901e-03</internalNodes>
          <leafValues>
            6.2302541732788086e-01 -1.1981296539306641e-01</leafValues></_>
        <_>
          <internalNodes>
            0 -1 146 2.3361439161817543e-05</internalNodes>
          <leafValues>
            -2.3210783302783966e-01 2.3131774365901947e-01</leafValues></_>
        <_>
          <internalNodes>
            0 -1 180 2.3419555509462953e-04</internalNodes>
          <leafValues>
            1.0872171819210052e-01 -5.5565822124481201e-01</leafValues></_>
        <_>
          <internalNodes>
            0 -1 166 1.8037034897133708e-04</internalNodes>
          <leafValues>
            -1.8314890563488007e-01 3.0613470077514648e-01</leafValues></_></weakClassifiers></_>
    <!-- stage 14 -->
    <_>
      <maxWeakCount>17</maxWeakCount>
      <stageThreshold>-1.7155165672302246e+00</stageThreshold>
      <weakClassifiers>
        <_>
          <internalNodes>
            0 -1 161 -1.1591020971536636e-02</internalNodes>
          <leafValues>
            3.3333334326744080e-01 -8.2768100500106812e-01</leafValues></_>
        <_>
          <internalNodes>
            0 -1 19 -5.6999176740646362e-03</internalNodes>
          <leafValues>
            -1.1770451813936234e-01 -5.3321951627731323e-01</leafValues></_>
        <_>
          <internalNodes>
            0 -1 72 8.0716519732959569e-05</internalNodes>
          <leafValues>
            1.1167968809604645e-01 -4.2818069458007812e-01</leafValues></_>
        <_>
          <internalNodes>
            0 -1 242 -1.2051951489411294e-04</internalNodes>
          <leafValues>
            -4.4033104181289673e-01 1.0294798761606216e-01</leafValues></_>
        <_>
          <internalNodes>
            0 -1 209 -1.6280296258628368e-03</internalNodes>
          <leafValues>
            5.3262227773666382e-01 -8.4551900625228882e-02</leafValues></_>
        <_>
          <internalNodes>
            0 -1 171 4.2477814713492990e-04</internalNodes>
          <leafValues>
            1.2156459689140320e-01 -5.6053745746612549e-01</leafValues></_>
        <_>
          <internalNodes>
            0 -1 154 -4.0012394310906529e-04</internalNodes>
          <leafValues>
            3.6469492316246033e-01 -1.7414262890815735e-01</leafValues></_>
        <_>
          <internalNodes>
            0 -1 77 -1.4852319145575166e-04</internalNodes>
          <leafValues>
            -4.1014778614044189e-01 1.3761465251445770e-01</leafValues></_>
        <_>
          <internalNodes>
            0 -1 93 -3.7244557461235672e-05</internalNodes>
          <leafValues>
            2.0258978009223938e-01 -2.8369915485382080e-01</leafValues></_>
        <_>
          <internalNodes>
            0 -1 30 2.4000019766390324e-03</internalNodes>
          <leafValues>
            -1.2636655569076538e-01 5.4558283090591431e-01</leafValues></_>
        <_>
          <internalNodes>
            0 -1 230 -5.9678823163267225e-05</internalNodes>
          <leafValues>
            2.2285115718841553e-01 -2.3516482114791870e-01</leafValues></_>
        <_>
          <internalNodes>
            0 -1 258 -2.4885646325856214e-06</internalNodes>
          <leafValues>
            -3.8744184374809265e-01 1.5429253876209259e-01</leafValues></_>
        <_>
          <internalNodes>
            0 -1 243 8.9462937467033044e-06</internalNodes>
          <leafValues>
            -2.6903924345970154e-01 2.2248819470405579e-01</leafValues></_>
        <_>
          <internalNodes>
            0 -1 228 -5.0477156037231907e-05</internalNodes>
          <leafValues>
            2.4900107085704803e-01 -2.1512798964977264e-01</leafValues></_>
        <_>
          <internalNodes>
            0 -1 215 -1.7093116184696555e-04</internalNodes>
          <leafValues>
            -4.5061561465263367e-01 1.2579634785652161e-01</leafValues></_>
        <_>
          <internalNodes>
            0 -1 20 9.5783323049545288e-03</internalNodes>
          <leafValues>
            -1.5215344727039337e-01 4.3895447254180908e-01</leafValues></_>
        <_>
          <internalNodes>
            0 -1 186 1.1361912766005844e-04</internalNodes>
          <leafValues>
            1.4827024936676025e-01 -4.2049500346183777e-01</leafValues></_></weakClassifiers></_>
    <!-- stage 15 -->
    <_>
      <maxWeakCount>15</maxWeakCount>
      <stageThreshold>-1.5820139646530151e+00</stageThreshold>
      <weakClassifiers>
        <_>
          <internalNodes>
            0 -1 140 -1.3998000323772430e-01</internalNodes>
          <leafValues>
            6.3636362552642822e-01 -8.2549107074737549e-01</leafValues></_>
        <_>
          <internalNodes>
            0 -1 115 7.5699863373301923e-05</internalNodes>
          <leafValues>
            -1.7597317695617676e-01 -5.8767473697662354e-01</leafValues></_>
        <_>
          <internalNodes>
            0 -1 74 2.8680250048637390e-02</internalNodes>
          <leafValues>
            4.3069142848253250e-02 -8.1522315740585327e-01</leafValues></_>
        <_>
          <internalNodes>
            0 -1 42 -4.0829690988175571e-05</internalNodes>
          <leafValues>
            -2.9244834184646606e-01 1.8506182730197906e-01</leafValues></_>
        <_>
          <internalNodes>
            0 -1 52 -1.0495241731405258e-02</internalNodes>
          <leafValues>
            2.4451066553592682e-01 -2.0815998315811157e-01</leafValues></_>
        <_>
          <internalNodes>
            0 -1 14 -2.3910677100502653e-06</internalNodes>
          <leafValues>
            -2.4504156410694122e-01 2.4148531258106232e-01</leafValues></_>
        <_>
          <internalNodes>
            0 -1 18 3.3405833619326586e-06</internalNodes>
          <leafValues>
            1.7161095142364502e-01 -3.1747829914093018e-01</leafValues></_>
        <_>
          <internalNodes>
            0 -1 87 -9.9440410849638283e-05</internalNodes>
          <leafValues>
            2.3612985014915466e-01 -2.2977000474929810e-01</leafValues></_>
        <_>
          <internalNodes>
            0 -1 110 -1.9428064115345478e-04</internalNodes>
          <leafValues>
            2.4339978396892548e-01 -2.1504516899585724e-01</leafValues></_>
        <_>
          <internalNodes>
            0 -1 29 5.1022823899984360e-03</internalNodes>
          <leafValues>
            -1.0149522870779037e-01 5.1153141260147095e-01</leafValues></_>
        <_>
          <internalNodes>
            0 -1 256 3.5371931153349578e-04</internalNodes>
          <leafValues>
            -6.3803389668464661e-02 8.4377682209014893e-01</leafValues></_>
        <_>
          <internalNodes>
            0 -1 66 9.9388125818222761e-05</internalNodes>
          <leafValues>
            1.5043801069259644e-01 -4.1601690649986267e-01</leafValues></_>
        <_>
          <internalNodes>
            0 -1 50 -1.7375627532601357e-02</internalNodes>
          <leafValues>
            2.1434082090854645e-01 -2.2573173046112061e-01</leafValues></_>
        <_>
          <internalNodes>
            0 -1 82 7.6967196946498007e-05</internalNodes>
          <leafValues>
            -1.7386525869369507e-01 2.9673761129379272e-01</leafValues></_>
        <_>
          <internalNodes>
            0 -1 106 -4.2427415028214455e-03</internalNodes>
          <leafValues>
            5.7502377033233643e-01 -8.8824607431888580e-02</leafValues></_></weakClassifiers></_>
    <!-- stage 16 -->
    <_>
      <maxWeakCount>15</maxWeakCount>
      <stageThreshold>-1.6538805961608887e+00</stageThreshold>
      <weakClassifiers>
        <_>
          <internalNodes>
            0 -1 238 -1.1042472906410694e-03</internalNodes>
          <leafValues>
            5.3846156597137451e-01 -8.2624602317810059e-01</leafValues></_>
        <_>
          <internalNodes>
            0 -1 241 8.6623520473949611e-05</internalNodes>
          <leafValues>
            -2.0988471806049347e-01 -6.6776728630065918e-01</leafValues></_>
        <_>
          <internalNodes>
            0 -1 263 3.1985884561436251e-05</internalNodes>
          <leafValues>
            1.1920506507158279e-01 -3.7492513656616211e-01</leafValues></_>
        <_>
          <internalNodes>
            0 -1 37 -7.0014903030823916e-06</internalNodes>
          <leafValues>
            2.5272458791732788e-01 -2.0744842290878296e-01</leafValues></_>
        <_>
          <internalNodes>
            0 -1 174 1.0538105925661512e-05</internalNodes>
          <leafValues>
            -2.3093469440937042e-01 2.2428986430168152e-01</leafValues></_>
        <_>
          <internalNodes>
            0 -1 144 -1.9700459233717993e-05</internalNodes>
          <leafValues>
            2.5844648480415344e-01 -2.1509429812431335e-01</leafValues></_>
        <_>
          <internalNodes>
            0 -1 225 -3.0436576344072819e-04</internalNodes>
          <leafValues>
            2.2785912454128265e-01 -2.1569041907787323e-01</leafValues></_>
        <_>
          <internalNodes>
            0 -1 80 -7.5347692472860217e-05</internalNodes>
          <leafValues>
            -3.2970896363258362e-01 1.5559656918048859e-01</leafValues></_>
        <_>
          <internalNodes>
            0 -1 56 2.6966650038957596e-03</internalNodes>
          <leafValues>
            -1.5342003107070923e-01 3.7053373456001282e-01</leafValues></_>
        <_>
          <internalNodes>
            0 -1 34 -1.4768371329410002e-05</internalNodes>
          <leafValues>
            -3.6189302802085876e-01 1.6636107861995697e-01</leafValues></_>
        <_>
          <internalNodes>
            0 -1 233 8.1683581811375916e-05</internalNodes>
          <leafValues>
            -2.0430323481559753e-01 2.6456394791603088e-01</leafValues></_>
        <_>
          <internalNodes>
            0 -1 36 8.8033790234476328e-05</internalNodes>
          <leafValues>
            1.6311857104301453e-01 -3.6124232411384583e-01</leafValues></_>
        <_>
          <internalNodes>
            0 -1 137 2.5709439069032669e-04</internalNodes>
          <leafValues>
            -1.3419678807258606e-01 4.3611556291580200e-01</leafValues></_>
        <_>
          <internalNodes>
            0 -1 119 5.5590480769751593e-05</internalNodes>
          <leafValues>
            1.1266407370567322e-01 -4.9429732561111450e-01</leafValues></_>
        <_>
          <internalNodes>
            0 -1 220 -1.9556031475076452e-05</internalNodes>
          <leafValues>
            2.1208667755126953e-01 -2.8233879804611206e-01</leafValues></_></weakClassifiers></_>
    <!-- stage 17 -->
    <_>
      <maxWeakCount>16</maxWeakCount>
      <stageThreshold>-1.6849838495254517e+00</stageThreshold>
      <weakClassifiers>
        <_>
          <internalNodes>
            0 -1 231 2.1404030267149210e-03</internalNodes>
          <leafValues>
            -8.2565039396286011e-01 1.</leafValues></_>
        <_>
          <internalNodes>
            0 -1 214 -6.7055593244731426e-03</internalNodes>
          <leafValues>
            -9.7547698020935059e-01 -2.2927834093570709e-01</leafValues></_>
        <_>
          <internalNodes>
            0 -1 53 8.9389170170761645e-05</internalNodes>
          <leafValues>
            -3.5306775569915771e-01 1.6253775358200073e-01</leafValues></_>
        <_>
          <internalNodes>
            0 -1 139 -2.6198245905106887e-05</internalNodes>
          <leafValues>
            -3.6770683526992798e-01 2.5775119662284851e-01</leafValues></_>
        <_>
          <internalNodes>
            0 -1 211 -2.7016777545213699e-02</internalNodes>
          <leafValues>
            -1. 1.3369287364184856e-02</leafValues></_>
        <_>
          <internalNodes>
            0 -1 114 -6.9037370849400759e-05</internalNodes>
          <leafValues>
            -3.9120653271675110e-01 1.8707670271396637e-01</leafValues></_>
        <_>
          <internalNodes>
            0 -1 204 1.5312308096326888e-04</internalNodes>
          <leafValues>
            -1.6091556847095490e-01 3.3260485529899597e-01</leafValues></_>
        <_>
          <internalNodes>
            0 -1 35 5.3788589866599068e-05</internalNodes>
          <leafValues>
            1.4690871536731720e-01 -4.2510998249053955e-01</leafValues></_>
        <_>
          <internalNodes>
            0 -1 33 -2.3300399334402755e-05</internalNodes>
          <leafValues>
            -2.8512859344482422e-01 1.9327805936336517e-01</leafValues></_>
        <_>
          <internalNodes>
            0 -1 245 -3.8231213693507016e-05</internalNodes>
          <leafValues>
            3.6748754978179932e-01 -1.6456085443496704e-01</leafValues></_>
        <_>
          <internalNodes>
            0 -1 184 1.0913559235632420e-03</internalNodes>
          <leafValues>
            7.8124366700649261e-02 -7.0639204978942871e-01</leafValues></_>
        <_>
          <internalNodes>
            0 -1 73 -2.5760787539184093e-03</internalNodes>
          <leafValues>
            3.3499848842620850e-01 -1.7618915438652039e-01</leafValues></_>
        <_>
          <internalNodes>
            0 -1 97 -2.4396771914325655e-04</internalNodes>
          <leafValues>
            2.8353777527809143e-01 -1.8134789168834686e-01</leafValues></_>
        <_>
          <internalNodes>
            0 -1 107 3.7385942414402962e-04</internalNodes>
          <leafValues>
            1.5009343624114990e-01 -4.0876796841621399e-01</leafValues></_>
        <_>
          <internalNodes>
            0 -1 96 -1.1739476030925289e-04</internalNodes>
          <leafValues>
            -3.3924210071563721e-01 1.4675791561603546e-01</leafValues></_>
        <_>
          <internalNodes>
            0 -1 63 -8.2938524428755045e-04</internalNodes>
          <leafValues>
            3.7240165472030640e-01 -1.5226145088672638e-01</leafValues></_></weakClassifiers></_>
    <!-- stage 18 -->
    <_>
      <maxWeakCount>20</maxWeakCount>
      <stageThreshold>-1.6575615406036377e+00</stageThreshold>
      <weakClassifiers>
        <_>
          <internalNodes>
            0 -1 212 1.5519850421696901e-03</internalNodes>
          <leafValues>
            -8.3004134893417358e-01 3.0434781312942505e-01</leafValues></_>
        <_>
          <internalNodes>
            0 -1 255 1.5275290934368968e-05</internalNodes>
          <leafValues>
            -2.0547972619533539e-01 -6.3700824975967407e-01</leafValues></_>
        <_>
          <internalNodes>
            0 -1 191 -6.8773988459724933e-06</internalNodes>
          <leafValues>
            1.8076099455356598e-01 -2.4627090990543365e-01</leafValues></_>
        <_>
          <internalNodes>
            0 -1 86 -9.6223047003149986e-03</internalNodes>
          <leafValues>
            -7.9146319627761841e-01 5.5809605866670609e-02</leafValues></_>
        <_>
          <internalNodes>
            0 -1 196 -7.6197713497094810e-05</internalNodes>
          <leafValues>
            -3.1661203503608704e-01 1.5099641680717468e-01</leafValues></_>
        <_>
          <internalNodes>
            0 -1 138 -2.1269315766403452e-05</internalNodes>
          <leafValues>
            2.9428070783615112e-01 -1.5353080630302429e-01</leafValues></_>
        <_>
          <internalNodes>
            0 -1 262 -8.4847870311932638e-06</internalNodes>
          <leafValues>
            -3.0727717280387878e-01 1.7972832918167114e-01</leafValues></_>
        <_>
          <internalNodes>
            0 -1 261 1.4534754882333800e-05</internalNodes>
          <leafValues>
            1.7667464911937714e-01 -2.8566491603851318e-01</leafValues></_>
        <_>
          <internalNodes>
            0 -1 116 6.1448241467587650e-05</internalNodes>
          <leafValues>
            -2.2473581135272980e-01 2.4074028432369232e-01</leafValues></_>
        <_>
          <internalNodes>
            0 -1 177 -1.3960810611024499e-04</internalNodes>
          <leafValues>
            2.5012433528900146e-01 -2.2749693691730499e-01</leafValues></_>
        <_>
          <internalNodes>
            0 -1 205 -4.9825190217234194e-05</internalNodes>
          <leafValues>
            2.2281344234943390e-01 -2.3354378342628479e-01</leafValues></_>
        <_>
          <internalNodes>
            0 -1 126 -4.3813306838274002e-03</internalNodes>
          <leafValues>
            -2.4434056878089905e-01 2.1369199454784393e-01</leafValues></_>
        <_>
          <internalNodes>
            0 -1 155 -2.1029148250818253e-02</internalNodes>
          <leafValues>
            3.5157319903373718e-01 -1.4918820559978485e-01</leafValues></_>
        <_>
          <internalNodes>
            0 -1 76 -2.6504932902753353e-03</internalNodes>
          <leafValues>
            2.1680387854576111e-01 -2.6540252566337585e-01</leafValues></_>
        <_>
          <internalNodes>
            0 -1 173 -1.3805455819237977e-04</internalNodes>
          <leafValues>
            2.3838931322097778e-01 -2.3453715443611145e-01</leafValues></_>
        <_>
          <internalNodes>
            0 -1 129 -2.6578820779832313e-06</internalNodes>
          <leafValues>
            -3.8768869638442993e-01 1.3503716886043549e-01</leafValues></_>
        <_>
          <internalNodes>
            0 -1 164 1.0918292900896631e-05</internalNodes>
          <leafValues>
            -2.3001135885715485e-01 2.1591952443122864e-01</leafValues></_>
        <_>
          <internalNodes>
            0 -1 163 -1.6789992514532059e-05</internalNodes>
          <leafValues>
            -3.2923161983489990e-01 1.4270961284637451e-01</leafValues></_>
        <_>
          <internalNodes>
            0 -1 158 4.1990337194874883e-05</internalNodes>
          <leafValues>
            -1.5426428616046906e-01 3.2476520538330078e-01</leafValues></_>
        <_>
          <internalNodes>
            0 -1 28 -4.2371423915028572e-03</internalNodes>
          <leafValues>
            -6.5991520881652832e-01 7.4470408260822296e-02</leafValues></_></weakClassifiers></_>
    <!-- stage 19 -->
    <_>
      <maxWeakCount>21</maxWeakCount>
      <stageThreshold>-1.8316872119903564e+00</stageThreshold>
      <weakClassifiers>
        <_>
          <internalNodes>
            0 -1 197 3.1697854865342379e-03</internalNodes>
          <leafValues>
            -8.2398539781570435e-01 1.</leafValues></_>
        <_>
          <internalNodes>
            0 -1 169 7.3469600465614349e-06</internalNodes>
          <leafValues>
            -1.8799988925457001e-01 -5.9215164184570312e-01</leafValues></_>
        <_>
          <internalNodes>
            0 -1 265 2.4231529096141458e-05</internalNodes>
          <leafValues>
            1.2418146431446075e-01 -3.0962839722633362e-01</leafValues></_>
        <_>
          <internalNodes>
            0 -1 152 1.8443909357301891e-04</internalNodes>
          <leafValues>
            1.1448092758655548e-01 -3.5196772217750549e-01</leafValues></_>
        <_>
          <internalNodes>
            0 -1 250 3.4413674256938975e-06</internalNodes>
          <leafValues>
            -1.7248080670833588e-01 2.8268224000930786e-01</leafValues></_>
        <_>
          <internalNodes>
            0 -1 251 -2.2227344743441790e-05</internalNodes>
          <leafValues>
            2.4600903689861298e-01 -1.8067508935928345e-01</leafValues></_>
        <_>
          <internalNodes>
            0 -1 264 -2.4614233552711084e-05</internalNodes>
          <leafValues>
            -2.8182458877563477e-01 1.7597666382789612e-01</leafValues></_>
        <_>
          <internalNodes>
            0 -1 85 2.2307927793008275e-05</internalNodes>
          <leafValues>
            -2.0400482416152954e-01 2.4260182678699493e-01</leafValues></_>
        <_>
          <internalNodes>
            0 -1 125 5.7323081418871880e-03</internalNodes>
          <leafValues>
            -6.6365145146846771e-02 6.5911149978637695e-01</leafValues></_>
        <_>
          <internalNodes>
            0 -1 31 1.5342130325734615e-02</internalNodes>
          <leafValues>
            1.0065776109695435e-01 -4.9298807978630066e-01</leafValues></_>
        <_>
          <internalNodes>
            0 -1 91 -4.8343377420678735e-04</internalNodes>
          <leafValues>
            -4.0992167592048645e-01 1.0722064226865768e-01</leafValues></_>
        <_>
          <internalNodes>
            0 -1 105 -1.6108995769172907e-03</internalNodes>
          <leafValues>
            6.2056779861450195e-01 -7.9717427492141724e-02</leafValues></_>
        <_>
          <internalNodes>
            0 -1 111 -8.8197266450151801e-05</internalNodes>
          <leafValues>
            -3.2330924272537231e-01 1.5317264199256897e-01</leafValues></_>
        <_>
          <internalNodes>
            0 -1 88 5.4247640946414322e-05</internalNodes>
          <leafValues>
            1.6256518661975861e-01 -3.3633023500442505e-01</leafValues></_>
        <_>
          <internalNodes>
            0 -1 98 -3.1725860026199371e-05</internalNodes>
          <leafValues>
            2.3412570357322693e-01 -2.3401577770709991e-01</leafValues></_>
        <_>
          <internalNodes>
            0 -1 79 3.7571045686490834e-04</internalNodes>
          <leafValues>
            -2.0074965059757233e-01 2.6242691278457642e-01</leafValues></_>
        <_>
          <internalNodes>
            0 -1 70 -1.5079208242241293e-04</internalNodes>
          <leafValues>
            -3.4645894169807434e-01 1.4280225336551666e-01</leafValues></_>
        <_>
          <internalNodes>
            0 -1 95 -5.2743394917342812e-05</internalNodes>
          <leafValues>
            2.3391033709049225e-01 -2.1703772246837616e-01</leafValues></_>
        <_>
          <internalNodes>
            0 -1 22 1.3078766642138362e-04</internalNodes>
          <leafValues>
            -1.0551681369543076e-01 4.8942643404006958e-01</leafValues></_>
        <_>
          <internalNodes>
            0 -1 26 -6.6754996623785701e-06</internalNodes>
          <leafValues>
            2.3479188978672028e-01 -2.2877225279808044e-01</leafValues></_>
        <_>
          <internalNodes>
            0 -1 59 -1.1304050531180110e-05</internalNodes>
          <leafValues>
            -3.1453919410705566e-01 1.8491448462009430e-01</leafValues></_></weakClassifiers></_></stages>
  <features>
    <_>
      <rects>
        <_>
          0 0 21 1 -1.</_>
        <_>
          7 0 7 1 3.</_></rects>
      <tilted>0</tilted></_>
    <_>
      <rects>
        <_>
          0 0 16 16 -1.</_>
        <_>
          0 0 8 8 2.</_>
        <_>
          8 8 8 8 2.</_></rects>
      <tilted>0</tilted></_>
    <_>
      <rects>
        <_>
          0 0 27 7 -1.</_>
        <_>
          9 0 9 7 3.</_></rects>
      <tilted>0</tilted></_>
    <_>
      <rects>
        <_>
          0 0 9 44 -1.</_>
        <_>
          0 22 9 22 2.</_></rects>
      <tilted>0</tilted></_>
    <_>
      <rects>
        <_>
          0 0 22 20 -1.</_>
        <_>
          0 0 11 10 2.</_>
        <_>
          11 10 11 10 2.</_></rects>
      <tilted>0</tilted></_>
    <_>
      <rects>
        <_>
          0 0 36 2 -1.</_>
        <_>
          12 0 12 2 3.</_></rects>
      <tilted>0</tilted></_>
    <_>
      <rects>
        <_>
          0 0 13 30 -1.</_>
        <_>
          0 15 13 15 2.</_></rects>
      <tilted>0</tilted></_>
    <_>
      <rects>
        <_>
          0 0 28 16 -1.</_>
        <_>
          14 0 14 16 2.</_></rects>
      <tilted>0</tilted></_>
    <_>
      <rects>
        <_>
          0 0 14 44 -1.</_>
        <_>
          0 22 14 22 2.</_></rects>
      <tilted>0</tilted></_>
    <_>
      <rects>
        <_>
          0 0 30 5 -1.</_>
        <_>
          15 0 15 5 2.</_></rects>
      <tilted>0</tilted></_>
    <_>
      <rects>
        <_>
          0 0 45 7 -1.</_>
        <_>
          15 0 15 7 3.</_></rects>
      <tilted>0</tilted></_>
    <_>
      <rects>
        <_>
          0 0 36 7 -1.</_>
        <_>
          18 0 18 7 2.</_></rects>
      <tilted>0</tilted></_>
    <_>
      <rects>
        <_>
          0 0 38 11 -1.</_>
        <_>
          19 0 19 11 2.</_></rects>
      <tilted>0</tilted></_>
    <_>
      <rects>
        <_>
          0 0 48 12 -1.</_>
        <_>
          24 0 24 12 2.</_></rects>
      <tilted>0</tilted></_>
    <_>
      <rects>
        <_>
          0 1 2 22 -1.</_>
        <_>
          1 1 1 22 2.</_></rects>
      <tilted>0</tilted></_>
    <_>
      <rects>
        <_>
          0 1 2 24 -1.</_>
        <_>
          0 9 2 8 3.</_></rects>
      <tilted>0</tilted></_>
    <_>
      <rects>
        <_>
          0 1 44 8 -1.</_>
        <_>
          22 1 22 8 2.</_></rects>
      <tilted>0</tilted></_>
    <_>
      <rects>
        <_>
          0 2 2 46 -1.</_>
        <_>
          1 2 1 46 2.</_></rects>
      <tilted>0</tilted></_>
    <_>
      <rects>
        <_>
          0 3 2 15 -1.</_>
        <_>
          1 3 1 15 2.</_></rects>
      <tilted>0</tilted></_>
    <_>
      <rects>
        <_>
          0 3 1 45 -1.</_>
        <_>
          0 18 1 15 3.</_></rects>
      <tilted>0</tilted></_>
    <_>
      <rects>
        <_>
          0 3 6 26 -1.</_>
        <_>
          0 3 3 13 2.</_>
        <_>
          3 16 3 13 2.</_></rects>
      <tilted>0</tilted></_>
    <_>
      <rects>
        <_>
          0 3 5 9 -1.</_>
        <_>
          0 6 5 3 3.</_></rects>
      <tilted>0</tilted></_>
    <_>
      <rects>
        <_>
          0 5 2 2 -1.</_>
        <_>
          0 5 1 1 2.</_>
        <_>
          1 6 1 1 2.</_></rects>
      <tilted>0</tilted></_>
    <_>
      <rects>
        <_>
          0 6 47 3 -1.</_>
        <_>
          0 7 47 1 3.</_></rects>
      <tilted>0</tilted></_>
    <_>
      <rects>
        <_>
          0 7 2 42 -1.</_>
        <_>
          1 7 1 42 2.</_></rects>
      <tilted>0</tilted></_>
    <_>
      <rects>
        <_>
          0 8 2 27 -1.</_>
        <_>
          1 8 1 27 2.</_></rects>
      <tilted>0</tilted></_>
    <_>
      <rects>
        <_>
          0 10 13 3 -1.</_>
        <_>
          0 11 13 1 3.</_></rects>
      <tilted>0</tilted></_>
    <_>
      <rects>
        <_>
          0 11 2 19 -1.</_>
        <_>
          1 11 1 19 2.</_></rects>
      <tilted>0</tilted></_>
    <_>
      <rects>
        <_>
          0 13 4 17 -1.</_>
        <_>
          2 13 2 17 2.</_></rects>
      <tilted>0</tilted></_>
    <_>
      <rects>
        <_>
          0 13 21 1 -1.</_>
        <_>
          7 13 7 1 3.</_></rects>
      <tilted>0</tilted></_>
    <_>
      <rects>
        <_>
          0 16 5 6 -1.</_>
        <_>
          0 19 5 3 2.</_></rects>
      <tilted>0</tilted></_>
    <_>
      <rects>
        <_>
          0 24 27 12 -1.</_>
        <_>
          9 24 9 12 3.</_></rects>
      <tilted>0</tilted></_>
    <_>
      <rects>
        <_>
          0 26 2 16 -1.</_>
        <_>
          0 26 1 8 2.</_>
        <_>
          1 34 1 8 2.</_></rects>
      <tilted>0</tilted></_>
    <_>
      <rects>
        <_>
          0 29 2 19 -1.</_>
        <_>
          1 29 1 19 2.</_></rects>
      <tilted>0</tilted></_>
    <_>
      <rects>
        <_>
          0 35 2 10 -1.</_>
        <_>
          0 35 1 5 2.</_>
        <_>
          1 40 1 5 2.</_></rects>
      <tilted>0</tilted></_>
    <_>
      <rects>
        <_>
          0 36 2 12 -1.</_>
        <_>
          1 36 1 12 2.</_></rects>
      <tilted>0</tilted></_>
    <_>
      <rects>
        <_>
          0 37 4 6 -1.</_>
        <_>
          0 37 2 3 2.</_>
        <_>
          2 40 2 3 2.</_></rects>
      <tilted>0</tilted></_>
    <_>
      <rects>
        <_>
          0 37 18 3 -1.</_>
        <_>
          0 38 18 1 3.</_></rects>
      <tilted>0</tilted></_>
    <_>
      <rects>
        <_>
          0 43 42 2 -1.</_>
        <_>
          21 43 21 2 2.</_></rects>
      <tilted>0</tilted></_>
    <_>
      <rects>
        <_>
          0 45 2 2 -1.</_>
        <_>
          0 45 1 1 2.</_>
        <_>
          1 46 1 1 2.</_></rects>
      <tilted>0</tilted></_>
    <_>
      <rects>
        <_>
          1 0 1 22 -1.</_>
        <_>
          1 11 1 11 2.</_></rects>
      <tilted>0</tilted></_>
    <_>
      <rects>
        <_>
          1 0 4 42 -1.</_>
        <_>
          1 21 4 21 2.</_></rects>
      <tilted>0</tilted></_>
    <_>
      <rects>
        <_>
          1 0 10 2 -1.</_>
        <_>
          1 0 5 1 2.</_>
        <_>
          6 1 5 1 2.</_></rects>
      <tilted>0</tilted></_>
    <_>
      <rects>
        <_>
          1 0 21 3 -1.</_>
        <_>
          8 0 7 3 3.</_></rects>
      <tilted>0</tilted></_>
    <_>
      <rects>
        <_>
          1 0 14 8 -1.</_>
        <_>
          1 0 7 4 2.</_>
        <_>
          8 4 7 4 2.</_></rects>
      <tilted>0</tilted></_>
    <_>
      <rects>
        <_>
          1 0 20 12 -1.</_>
        <_>
          1 0 10 6 2.</_>
        <_>
          11 6 10 6 2.</_></rects>
      <tilted>0</tilted></_>
    <_>
      <rects>
        <_>
          1 0 30 22 -1.</_>
        <_>
          11 0 10 22 3.</_></rects>
      <tilted>0</tilted></_>
    <_>
      <rects>
        <_>
          1 0 24 22 -1.</_>
        <_>
          1 0 12 11 2.</_>
        <_>
          13 11 12 11 2.</_></rects>
      <tilted>0</tilted></_>
    <_>
      <rects>
        <_>
          1 0 14 40 -1.</_>
        <_>
          1 20 14 20 2.</_></rects>
      <tilted>0</tilted></_>
    <_>
      <rects>
        <_>
          1 1 1 27 -1.</_>
        <_>
          1 10 1 9 3.</_></rects>
      <tilted>0</tilted></_>
    <_>
      <rects>
        <_>
          1 1 2 48 -1.</_>
        <_>
          1 17 2 16 3.</_></rects>
      <tilted>0</tilted></_>
    <_>
      <rects>
        <_>
          1 1 22 20 -1.</_>
        <_>
          1 1 11 10 2.</_>
        <_>
          12 11 11 10 2.</_></rects>
      <tilted>0</tilted></_>
    <_>
      <rects>
        <_>
          1 2 15 27 -1.</_>
        <_>
          6 2 5 27 3.</_></rects>
      <tilted>0</tilted></_>
    <_>
      <rects>
        <_>
          1 6 28 2 -1.</_>
        <_>
          1 6 14 1 2.</_>
        <_>
          15 7 14 1 2.</_></rects>
      <tilted>0</tilted></_>
    <_>
      <rects>
        <_>
          1 7 8 3 -1.</_>
        <_>
          5 7 4 3 2.</_></rects>
      <tilted>0</tilted></_>
    <_>
      <rects>
        <_>
          1 10 30 6 -1.</_>
        <_>
          1 10 15 3 2.</_>
        <_>
          16 13 15 3 2.</_></rects>
      <tilted>0</tilted></_>
    <_>
      <rects>
        <_>
          1 31 17 12 -1.</_>
        <_>
          1 35 17 4 3.</_></rects>
      <tilted>0</tilted></_>
    <_>
      <rects>
        <_>
          1 48 8 2 -1.</_>
        <_>
          1 48 4 1 2.</_>
        <_>
          5 49 4 1 2.</_></rects>
      <tilted>0</tilted></_>
    <_>
      <rects>
        <_>
          2 0 1 22 -1.</_>
        <_>
          2 11 1 11 2.</_></rects>
      <tilted>0</tilted></_>
    <_>
      <rects>
        <_>
          2 0 2 2 -1.</_>
        <_>
          2 1 2 1 2.</_></rects>
      <tilted>0</tilted></_>
    <_>
      <rects>
        <_>
          2 0 14 7 -1.</_>
        <_>
          9 0 7 7 2.</_></rects>
      <tilted>0</tilted></_>
    <_>
      <rects>
        <_>
          2 1 1 40 -1.</_>
        <_>
          2 21 1 20 2.</_></rects>
      <tilted>0</tilted></_>
    <_>
      <rects>
        <_>
          2 1 6 5 -1.</_>
        <_>
          5 1 3 5 2.</_></rects>
      <tilted>0</tilted></_>
    <_>
      <rects>
        <_>
          2 1 24 2 -1.</_>
        <_>
          2 1 12 1 2.</_>
        <_>
          14 2 12 1 2.</_></rects>
      <tilted>0</tilted></_>
    <_>
      <rects>
        <_>
          2 7 42 9 -1.</_>
        <_>
          23 7 21 9 2.</_></rects>
      <tilted>0</tilted></_>
    <_>
      <rects>
        <_>
          2 31 13 3 -1.</_>
        <_>
          2 32 13 1 3.</_></rects>
      <tilted>0</tilted></_>
    <_>
      <rects>
        <_>
          2 35 8 3 -1.</_>
        <_>
          2 36 8 1 3.</_></rects>
      <tilted>0</tilted></_>
    <_>
      <rects>
        <_>
          3 0 30 30 -1.</_>
        <_>
          3 0 15 15 2.</_>
        <_>
          18 15 15 15 2.</_></rects>
      <tilted>0</tilted></_>
    <_>
      <rects>
        <_>
          3 1 4 4 -1.</_>
        <_>
          5 1 2 4 2.</_></rects>
      <tilted>0</tilted></_>
    <_>
      <rects>
        <_>
          3 7 6 1 -1.</_>
        <_>
          6 7 3 1 2.</_></rects>
      <tilted>0</tilted></_>
    <_>
      <rects>
        <_>
          3 10 14 3 -1.</_>
        <_>
          3 11 14 1 3.</_></rects>
      <tilted>0</tilted></_>
    <_>
      <rects>
        <_>
          3 12 42 3 -1.</_>
        <_>
          3 13 42 1 3.</_></rects>
      <tilted>0</tilted></_>
    <_>
      <rects>
        <_>
          3 15 4 3 -1.</_>
        <_>
          3 16 4 1 3.</_></rects>
      <tilted>0</tilted></_>
    <_>
      <rects>
        <_>
          3 24 4 18 -1.</_>
        <_>
          3 30 4 6 3.</_></rects>
      <tilted>0</tilted></_>
    <_>
      <rects>
        <_>
          3 39 46 4 -1.</_>
        <_>
          26 39 23 4 2.</_></rects>
      <tilted>0</tilted></_>
    <_>
      <rects>
        <_>
          4 0 4 15 -1.</_>
        <_>
          6 0 2 15 2.</_></rects>
      <tilted>0</tilted></_>
    <_>
      <rects>
        <_>
          4 0 39 1 -1.</_>
        <_>
          17 0 13 1 3.</_></rects>
      <tilted>0</tilted></_>
    <_>
      <rects>
        <_>
          4 15 4 3 -1.</_>
        <_>
          4 16 4 1 3.</_></rects>
      <tilted>0</tilted></_>
    <_>
      <rects>
        <_>
          4 22 46 18 -1.</_>
        <_>
          27 22 23 18 2.</_></rects>
      <tilted>0</tilted></_>
    <_>
      <rects>
        <_>
          4 41 18 6 -1.</_>
        <_>
          10 41 6 6 3.</_></rects>
      <tilted>0</tilted></_>
    <_>
      <rects>
        <_>
          4 48 28 2 -1.</_>
        <_>
          4 48 14 1 2.</_>
        <_>
          18 49 14 1 2.</_></rects>
      <tilted>0</tilted></_>
    <_>
      <rects>
        <_>
          5 0 30 2 -1.</_>
        <_>
          5 1 30 1 2.</_></rects>
      <tilted>0</tilted></_>
    <_>
      <rects>
        <_>
          5 3 1 6 -1.</_>
        <_>
          5 6 1 3 2.</_></rects>
      <tilted>0</tilted></_>
    <_>
      <rects>
        <_>
          5 12 3 2 -1.</_>
        <_>
          5 13 3 1 2.</_></rects>
      <tilted>0</tilted></_>
    <_>
      <rects>
        <_>
          5 19 14 6 -1.</_>
        <_>
          5 19 7 3 2.</_>
        <_>
          12 22 7 3 2.</_></rects>
      <tilted>0</tilted></_>
    <_>
      <rects>
        <_>
          5 33 4 1 -1.</_>
        <_>
          7 33 2 1 2.</_></rects>
      <tilted>0</tilted></_>
    <_>
      <rects>
        <_>
          5 44 30 2 -1.</_>
        <_>
          20 44 15 2 2.</_></rects>
      <tilted>0</tilted></_>
    <_>
      <rects>
        <_>
          5 45 12 5 -1.</_>
        <_>
          9 45 4 5 3.</_></rects>
      <tilted>0</tilted></_>
    <_>
      <rects>
        <_>
          5 48 42 2 -1.</_>
        <_>
          5 48 21 1 2.</_>
        <_>
          26 49 21 1 2.</_></rects>
      <tilted>0</tilted></_>
    <_>
      <rects>
        <_>
          6 5 2 8 -1.</_>
        <_>
          7 5 1 8 2.</_></rects>
      <tilted>0</tilted></_>
    <_>
      <rects>
        <_>
          6 5 34 13 -1.</_>
        <_>
          23 5 17 13 2.</_></rects>
      <tilted>0</tilted></_>
    <_>
      <rects>
        <_>
          6 12 26 3 -1.</_>
        <_>
          6 13 26 1 3.</_></rects>
      <tilted>0</tilted></_>
    <_>
      <rects>
        <_>
          6 13 33 3 -1.</_>
        <_>
          6 14 33 1 3.</_></rects>
      <tilted>0</tilted></_>
    <_>
      <rects>
        <_>
          6 14 1 4 -1.</_>
        <_>
          6 16 1 2 2.</_></rects>
      <tilted>0</tilted></_>
    <_>
      <rects>
        <_>
          6 43 2 2 -1.</_>
        <_>
          6 43 1 1 2.</_>
        <_>
          7 44 1 1 2.</_></rects>
      <tilted>0</tilted></_>
    <_>
      <rects>
        <_>
          6 43 8 2 -1.</_>
        <_>
          10 43 4 2 2.</_></rects>
      <tilted>0</tilted></_>
    <_>
      <rects>
        <_>
          7 0 26 2 -1.</_>
        <_>
          7 0 13 1 2.</_>
        <_>
          20 1 13 1 2.</_></rects>
      <tilted>0</tilted></_>
    <_>
      <rects>
        <_>
          7 0 21 3 -1.</_>
        <_>
          7 1 21 1 3.</_></rects>
      <tilted>0</tilted></_>
    <_>
      <rects>
        <_>
          7 1 2 1 -1.</_>
        <_>
          8 1 1 1 2.</_></rects>
      <tilted>0</tilted></_>
    <_>
      <rects>
        <_>
          7 1 14 6 -1.</_>
        <_>
          7 1 7 3 2.</_>
        <_>
          14 4 7 3 2.</_></rects>
      <tilted>0</tilted></_>
    <_>
      <rects>
        <_>
          8 0 2 1 -1.</_>
        <_>
          9 0 1 1 2.</_></rects>
      <tilted>0</tilted></_>
    <_>
      <rects>
        <_>
          8 0 25 2 -1.</_>
        <_>
          8 1 25 1 2.</_></rects>
      <tilted>0</tilted></_>
    <_>
      <rects>
        <_>
          8 1 24 3 -1.</_>
        <_>
          20 1 12 3 2.</_></rects>
      <tilted>0</tilted></_>
    <_>
      <rects>
        <_>
          8 12 3 18 -1.</_>
        <_>
          8 18 3 6 3.</_></rects>
      <tilted>0</tilted></_>
    <_>
      <rects>
        <_>
          8 18 3 6 -1.</_>
        <_>
          8 20 3 2 3.</_></rects>
      <tilted>0</tilted></_>
    <_>
      <rects>
        <_>
          9 45 7 4 -1.</_>
        <_>
          9 47 7 2 2.</_></rects>
      <tilted>0</tilted></_>
    <_>
      <rects>
        <_>
          10 0 6 2 -1.</_>
        <_>
          13 0 3 2 2.</_></rects>
      <tilted>0</tilted></_>
    <_>
      <rects>
        <_>
          10 0 20 2 -1.</_>
        <_>
          10 0 10 1 2.</_>
        <_>
          20 1 10 1 2.</_></rects>
      <tilted>0</tilted></_>
    <_>
      <rects>
        <_>
          10 2 2 5 -1.</_>
        <_>
          11 2 1 5 2.</_></rects>
      <tilted>0</tilted></_>
    <_>
      <rects>
        <_>
          10 4 18 15 -1.</_>
        <_>
          19 4 9 15 2.</_></rects>
      <tilted>0</tilted></_>
    <_>
      <rects>
        <_>
          10 38 8 12 -1.</_>
        <_>
          10 38 4 6 2.</_>
        <_>
          14 44 4 6 2.</_></rects>
      <tilted>0</tilted></_>
    <_>
      <rects>
        <_>
          10 48 34 2 -1.</_>
        <_>
          10 48 17 1 2.</_>
        <_>
          27 49 17 1 2.</_></rects>
      <tilted>0</tilted></_>
    <_>
      <rects>
        <_>
          10 48 40 2 -1.</_>
        <_>
          10 48 20 1 2.</_>
        <_>
          30 49 20 1 2.</_></rects>
      <tilted>0</tilted></_>
    <_>
      <rects>
        <_>
          10 48 38 2 -1.</_>
        <_>
          10 49 38 1 2.</_></rects>
      <tilted>0</tilted></_>
    <_>
      <rects>
        <_>
          11 0 16 2 -1.</_>
        <_>
          11 0 8 1 2.</_>
        <_>
          19 1 8 1 2.</_></rects>
      <tilted>0</tilted></_>
    <_>
      <rects>
        <_>
          11 0 36 2 -1.</_>
        <_>
          11 1 36 1 2.</_></rects>
      <tilted>0</tilted></_>
    <_>
      <rects>
        <_>
          11 4 15 2 -1.</_>
        <_>
          11 5 15 1 2.</_></rects>
      <tilted>0</tilted></_>
    <_>
      <rects>
        <_>
          11 26 19 3 -1.</_>
        <_>
          11 27 19 1 3.</_></rects>
      <tilted>0</tilted></_>
    <_>
      <rects>
        <_>
          11 27 2 3 -1.</_>
        <_>
          11 28 2 1 3.</_></rects>
      <tilted>0</tilted></_>
    <_>
      <rects>
        <_>
          11 27 3 3 -1.</_>
        <_>
          11 28 3 1 3.</_></rects>
      <tilted>0</tilted></_>
    <_>
      <rects>
        <_>
          12 0 2 18 -1.</_>
        <_>
          12 0 1 9 2.</_>
        <_>
          13 9 1 9 2.</_></rects>
      <tilted>0</tilted></_>
    <_>
      <rects>
        <_>
          12 0 2 22 -1.</_>
        <_>
          12 0 1 11 2.</_>
        <_>
          13 11 1 11 2.</_></rects>
      <tilted>0</tilted></_>
    <_>
      <rects>
        <_>
          12 0 6 2 -1.</_>
        <_>
          12 0 3 1 2.</_>
        <_>
          15 1 3 1 2.</_></rects>
      <tilted>0</tilted></_>
    <_>
      <rects>
        <_>
          12 7 5 26 -1.</_>
        <_>
          12 20 5 13 2.</_></rects>
      <tilted>0</tilted></_>
    <_>
      <rects>
        <_>
          12 9 16 20 -1.</_>
        <_>
          12 9 8 10 2.</_>
        <_>
          20 19 8 10 2.</_></rects>
      <tilted>0</tilted></_>
    <_>
      <rects>
        <_>
          12 16 6 8 -1.</_>
        <_>
          12 20 6 4 2.</_></rects>
      <tilted>0</tilted></_>
    <_>
      <rects>
        <_>
          12 16 32 6 -1.</_>
        <_>
          28 16 16 6 2.</_></rects>
      <tilted>0</tilted></_>
    <_>
      <rects>
        <_>
          12 34 3 3 -1.</_>
        <_>
          12 35 3 1 3.</_></rects>
      <tilted>0</tilted></_>
    <_>
      <rects>
        <_>
          12 36 29 3 -1.</_>
        <_>
          12 37 29 1 3.</_></rects>
      <tilted>0</tilted></_>
    <_>
      <rects>
        <_>
          12 48 2 2 -1.</_>
        <_>
          12 48 1 1 2.</_>
        <_>
          13 49 1 1 2.</_></rects>
      <tilted>0</tilted></_>
    <_>
      <rects>
        <_>
          12 48 30 2 -1.</_>
        <_>
          12 48 15 1 2.</_>
        <_>
          27 49 15 1 2.</_></rects>
      <tilted>0</tilted></_>
    <_>
      <rects>
        <_>
          12 48 17 2 -1.</_>
        <_>
          12 49 17 1 2.</_></rects>
      <tilted>0</tilted></_>
    <_>
      <rects>
        <_>
          13 0 6 3 -1.</_>
        <_>
          16 0 3 3 2.</_></rects>
      <tilted>0</tilted></_>
    <_>
      <rects>
        <_>
          13 2 2 3 -1.</_>
        <_>
          14 2 1 3 2.</_></rects>
      <tilted>0</tilted></_>
    <_>
      <rects>
        <_>
          13 3 14 32 -1.</_>
        <_>
          13 3 7 16 2.</_>
        <_>
          20 19 7 16 2.</_></rects>
      <tilted>0</tilted></_>
    <_>
      <rects>
        <_>
          13 28 36 3 -1.</_>
        <_>
          13 29 36 1 3.</_></rects>
      <tilted>0</tilted></_>
    <_>
      <rects>
        <_>
          13 37 18 4 -1.</_>
        <_>
          22 37 9 4 2.</_></rects>
      <tilted>0</tilted></_>
    <_>
      <rects>
        <_>
          13 41 2 4 -1.</_>
        <_>
          14 41 1 4 2.</_></rects>
      <tilted>0</tilted></_>
    <_>
      <rects>
        <_>
          13 49 2 1 -1.</_>
        <_>
          14 49 1 1 2.</_></rects>
      <tilted>0</tilted></_>
    <_>
      <rects>
        <_>
          14 0 3 2 -1.</_>
        <_>
          14 1 3 1 2.</_></rects>
      <tilted>0</tilted></_>
    <_>
      <rects>
        <_>
          14 0 20 14 -1.</_>
        <_>
          24 0 10 14 2.</_></rects>
      <tilted>0</tilted></_>
    <_>
      <rects>
        <_>
          14 1 2 3 -1.</_>
        <_>
          15 1 1 3 2.</_></rects>
      <tilted>0</tilted></_>
    <_>
      <rects>
        <_>
          14 7 3 3 -1.</_>
        <_>
          15 7 1 3 3.</_></rects>
      <tilted>0</tilted></_>
    <_>
      <rects>
        <_>
          14 13 1 3 -1.</_>
        <_>
          14 14 1 1 3.</_></rects>
      <tilted>0</tilted></_>
    <_>
      <rects>
        <_>
          14 17 1 2 -1.</_>
        <_>
          14 18 1 1 2.</_></rects>
      <tilted>0</tilted></_>
    <_>
      <rects>
        <_>
          14 20 7 8 -1.</_>
        <_>
          14 24 7 4 2.</_></rects>
      <tilted>0</tilted></_>
    <_>
      <rects>
        <_>
          14 26 6 4 -1.</_>
        <_>
          14 26 3 2 2.</_>
        <_>
          17 28 3 2 2.</_></rects>
      <tilted>0</tilted></_>
    <_>
      <rects>
        <_>
          14 42 2 3 -1.</_>
        <_>
          14 43 2 1 3.</_></rects>
      <tilted>0</tilted></_>
    <_>
      <rects>
        <_>
          14 44 2 3 -1.</_>
        <_>
          14 45 2 1 3.</_></rects>
      <tilted>0</tilted></_>
    <_>
      <rects>
        <_>
          14 48 28 2 -1.</_>
        <_>
          14 48 14 1 2.</_>
        <_>
          28 49 14 1 2.</_></rects>
      <tilted>0</tilted></_>
    <_>
      <rects>
        <_>
          15 2 2 48 -1.</_>
        <_>
          16 2 1 48 2.</_></rects>
      <tilted>0</tilted></_>
    <_>
      <rects>
        <_>
          16 0 33 2 -1.</_>
        <_>
          16 1 33 1 2.</_></rects>
      <tilted>0</tilted></_>
    <_>
      <rects>
        <_>
          16 20 15 3 -1.</_>
        <_>
          16 21 15 1 3.</_></rects>
      <tilted>0</tilted></_>
    <_>
      <rects>
        <_>
          16 46 6 4 -1.</_>
        <_>
          19 46 3 4 2.</_></rects>
      <tilted>0</tilted></_>
    <_>
      <rects>
        <_>
          17 8 2 6 -1.</_>
        <_>
          18 8 1 6 2.</_></rects>
      <tilted>0</tilted></_>
    <_>
      <rects>
        <_>
          17 11 14 23 -1.</_>
        <_>
          24 11 7 23 2.</_></rects>
      <tilted>0</tilted></_>
    <_>
      <rects>
        <_>
          17 20 4 15 -1.</_>
        <_>
          17 25 4 5 3.</_></rects>
      <tilted>0</tilted></_>
    <_>
      <rects>
        <_>
          17 48 1 2 -1.</_>
        <_>
          17 49 1 1 2.</_></rects>
      <tilted>0</tilted></_>
    <_>
      <rects>
        <_>
          18 1 2 1 -1.</_>
        <_>
          19 1 1 1 2.</_></rects>
      <tilted>0</tilted></_>
    <_>
      <rects>
        <_>
          18 3 4 18 -1.</_>
        <_>
          18 3 2 9 2.</_>
        <_>
          20 12 2 9 2.</_></rects>
      <tilted>0</tilted></_>
    <_>
      <rects>
        <_>
          18 10 3 11 -1.</_>
        <_>
          19 10 1 11 3.</_></rects>
      <tilted>0</tilted></_>
    <_>
      <rects>
        <_>
          18 13 8 3 -1.</_>
        <_>
          22 13 4 3 2.</_></rects>
      <tilted>0</tilted></_>
    <_>
      <rects>
        <_>
          18 48 2 2 -1.</_>
        <_>
          18 48 1 1 2.</_>
        <_>
          19 49 1 1 2.</_></rects>
      <tilted>0</tilted></_>
    <_>
      <rects>
        <_>
          19 0 4 2 -1.</_>
        <_>
          19 0 2 1 2.</_>
        <_>
          21 1 2 1 2.</_></rects>
      <tilted>0</tilted></_>
    <_>
      <rects>
        <_>
          19 6 4 4 -1.</_>
        <_>
          19 6 2 2 2.</_>
        <_>
          21 8 2 2 2.</_></rects>
      <tilted>0</tilted></_>
    <_>
      <rects>
        <_>
          19 6 15 2 -1.</_>
        <_>
          24 6 5 2 3.</_></rects>
      <tilted>0</tilted></_>
    <_>
      <rects>
        <_>
          19 7 4 2 -1.</_>
        <_>
          21 7 2 2 2.</_></rects>
      <tilted>0</tilted></_>
    <_>
      <rects>
        <_>
          19 11 3 24 -1.</_>
        <_>
          20 11 1 24 3.</_></rects>
      <tilted>0</tilted></_>
    <_>
      <rects>
        <_>
          19 25 5 6 -1.</_>
        <_>
          19 27 5 2 3.</_></rects>
      <tilted>0</tilted></_>
    <_>
      <rects>
        <_>
          20 0 2 2 -1.</_>
        <_>
          20 0 1 1 2.</_>
        <_>
          21 1 1 1 2.</_></rects>
      <tilted>0</tilted></_>
    <_>
      <rects>
        <_>
          20 0 3 23 -1.</_>
        <_>
          21 0 1 23 3.</_></rects>
      <tilted>0</tilted></_>
    <_>
      <rects>
        <_>
          20 3 17 3 -1.</_>
        <_>
          20 4 17 1 3.</_></rects>
      <tilted>0</tilted></_>
    <_>
      <rects>
        <_>
          20 19 4 18 -1.</_>
        <_>
          20 25 4 6 3.</_></rects>
      <tilted>0</tilted></_>
    <_>
      <rects>
        <_>
          20 24 6 4 -1.</_>
        <_>
          20 26 6 2 2.</_></rects>
      <tilted>0</tilted></_>
    <_>
      <rects>
        <_>
          21 1 25 4 -1.</_>
        <_>
          21 3 25 2 2.</_></rects>
      <tilted>0</tilted></_>
    <_>
      <rects>
        <_>
          21 9 19 3 -1.</_>
        <_>
          21 10 19 1 3.</_></rects>
      <tilted>0</tilted></_>
    <_>
      <rects>
        <_>
          21 41 9 9 -1.</_>
        <_>
          21 44 9 3 3.</_></rects>
      <tilted>0</tilted></_>
    <_>
      <rects>
        <_>
          22 1 1 12 -1.</_>
        <_>
          22 7 1 6 2.</_></rects>
      <tilted>0</tilted></_>
    <_>
      <rects>
        <_>
          22 4 27 46 -1.</_>
        <_>
          22 27 27 23 2.</_></rects>
      <tilted>0</tilted></_>
    <_>
      <rects>
        <_>
          22 12 20 3 -1.</_>
        <_>
          22 13 20 1 3.</_></rects>
      <tilted>0</tilted></_>
    <_>
      <rects>
        <_>
          23 7 5 3 -1.</_>
        <_>
          23 8 5 1 3.</_></rects>
      <tilted>0</tilted></_>
    <_>
      <rects>
        <_>
          23 13 7 3 -1.</_>
        <_>
          23 14 7 1 3.</_></rects>
      <tilted>0</tilted></_>
    <_>
      <rects>
        <_>
          23 15 13 4 -1.</_>
        <_>
          23 17 13 2 2.</_></rects>
      <tilted>0</tilted></_>
    <_>
      <rects>
        <_>
          23 41 19 9 -1.</_>
        <_>
          23 44 19 3 3.</_></rects>
      <tilted>0</tilted></_>
    <_>
      <rects>
        <_>
          24 3 4 6 -1.</_>
        <_>
          24 5 4 2 3.</_></rects>
      <tilted>0</tilted></_>
    <_>
      <rects>
        <_>
          24 20 12 2 -1.</_>
        <_>
          24 20 6 1 2.</_>
        <_>
          30 21 6 1 2.</_></rects>
      <tilted>0</tilted></_>
    <_>
      <rects>
        <_>
          24 26 18 3 -1.</_>
        <_>
          24 27 18 1 3.</_></rects>
      <tilted>0</tilted></_>
    <_>
      <rects>
        <_>
          24 48 8 2 -1.</_>
        <_>
          24 48 4 1 2.</_>
        <_>
          28 49 4 1 2.</_></rects>
      <tilted>0</tilted></_>
    <_>
      <rects>
        <_>
          25 4 2 6 -1.</_>
        <_>
          25 7 2 3 2.</_></rects>
      <tilted>0</tilted></_>
    <_>
      <rects>
        <_>
          25 7 8 6 -1.</_>
        <_>
          25 9 8 2 3.</_></rects>
      <tilted>0</tilted></_>
    <_>
      <rects>
        <_>
          25 18 10 1 -1.</_>
        <_>
          30 18 5 1 2.</_></rects>
      <tilted>0</tilted></_>
    <_>
      <rects>
        <_>
          25 37 14 3 -1.</_>
        <_>
          25 38 14 1 3.</_></rects>
      <tilted>0</tilted></_>
    <_>
      <rects>
        <_>
          25 42 10 5 -1.</_>
        <_>
          30 42 5 5 2.</_></rects>
      <tilted>0</tilted></_>
    <_>
      <rects>
        <_>
          26 27 11 3 -1.</_>
        <_>
          26 28 11 1 3.</_></rects>
      <tilted>0</tilted></_>
    <_>
      <rects>
        <_>
          27 0 9 2 -1.</_>
        <_>
          27 1 9 1 2.</_></rects>
      <tilted>0</tilted></_>
    <_>
      <rects>
        <_>
          27 16 15 3 -1.</_>
        <_>
          27 17 15 1 3.</_></rects>
      <tilted>0</tilted></_>
    <_>
      <rects>
        <_>
          27 37 12 3 -1.</_>
        <_>
          27 38 12 1 3.</_></rects>
      <tilted>0</tilted></_>
    <_>
      <rects>
        <_>
          27 42 3 4 -1.</_>
        <_>
          28 42 1 4 3.</_></rects>
      <tilted>0</tilted></_>
    <_>
      <rects>
        <_>
          28 0 20 2 -1.</_>
        <_>
          28 0 10 1 2.</_>
        <_>
          38 1 10 1 2.</_></rects>
      <tilted>0</tilted></_>
    <_>
      <rects>
        <_>
          28 23 2 6 -1.</_>
        <_>
          28 26 2 3 2.</_></rects>
      <tilted>0</tilted></_>
    <_>
      <rects>
        <_>
          28 24 6 14 -1.</_>
        <_>
          30 24 2 14 3.</_></rects>
      <tilted>0</tilted></_>
    <_>
      <rects>
        <_>
          28 42 1 8 -1.</_>
        <_>
          28 46 1 4 2.</_></rects>
      <tilted>0</tilted></_>
    <_>
      <rects>
        <_>
          28 48 2 2 -1.</_>
        <_>
          28 49 2 1 2.</_></rects>
      <tilted>0</tilted></_>
    <_>
      <rects>
        <_>
          28 48 20 2 -1.</_>
        <_>
          28 49 20 1 2.</_></rects>
      <tilted>0</tilted></_>
    <_>
      <rects>
        <_>
          29 12 2 9 -1.</_>
        <_>
          30 12 1 9 2.</_></rects>
      <tilted>0</tilted></_>
    <_>
      <rects>
        <_>
          29 14 4 3 -1.</_>
        <_>
          31 14 2 3 2.</_></rects>
      <tilted>0</tilted></_>
    <_>
      <rects>
        <_>
          30 21 2 3 -1.</_>
        <_>
          30 22 2 1 3.</_></rects>
      <tilted>0</tilted></_>
    <_>
      <rects>
        <_>
          30 29 18 3 -1.</_>
        <_>
          30 30 18 1 3.</_></rects>
      <tilted>0</tilted></_>
    <_>
      <rects>
        <_>
          31 0 18 2 -1.</_>
        <_>
          31 0 9 1 2.</_>
        <_>
          40 1 9 1 2.</_></rects>
      <tilted>0</tilted></_>
    <_>
      <rects>
        <_>
          31 8 2 8 -1.</_>
        <_>
          31 12 2 4 2.</_></rects>
      <tilted>0</tilted></_>
    <_>
      <rects>
        <_>
          31 39 9 6 -1.</_>
        <_>
          31 42 9 3 2.</_></rects>
      <tilted>0</tilted></_>
    <_>
      <rects>
        <_>
          31 39 18 9 -1.</_>
        <_>
          40 39 9 9 2.</_></rects>
      <tilted>0</tilted></_>
    <_>
      <rects>
        <_>
          32 17 3 4 -1.</_>
        <_>
          33 17 1 4 3.</_></rects>
      <tilted>0</tilted></_>
    <_>
      <rects>
        <_>
          32 23 4 3 -1.</_>
        <_>
          32 24 4 1 3.</_></rects>
      <tilted>0</tilted></_>
    <_>
      <rects>
        <_>
          32 37 15 3 -1.</_>
        <_>
          37 37 5 3 3.</_></rects>
      <tilted>0</tilted></_>
    <_>
      <rects>
        <_>
          32 48 18 2 -1.</_>
        <_>
          32 48 9 1 2.</_>
        <_>
          41 49 9 1 2.</_></rects>
      <tilted>0</tilted></_>
    <_>
      <rects>
        <_>
          33 0 14 34 -1.</_>
        <_>
          33 17 14 17 2.</_></rects>
      <tilted>0</tilted></_>
    <_>
      <rects>
        <_>
          33 36 6 3 -1.</_>
        <_>
          33 37 6 1 3.</_></rects>
      <tilted>0</tilted></_>
    <_>
      <rects>
        <_>
          33 38 1 3 -1.</_>
        <_>
          33 39 1 1 3.</_></rects>
      <tilted>0</tilted></_>
    <_>
      <rects>
        <_>
          33 41 8 3 -1.</_>
        <_>
          33 42 8 1 3.</_></rects>
      <tilted>0</tilted></_>
    <_>
      <rects>
        <_>
          34 0 15 2 -1.</_>
        <_>
          39 0 5 2 3.</_></rects>
      <tilted>0</tilted></_>
    <_>
      <rects>
        <_>
          35 11 1 3 -1.</_>
        <_>
          35 12 1 1 3.</_></rects>
      <tilted>0</tilted></_>
    <_>
      <rects>
        <_>
          35 24 3 3 -1.</_>
        <_>
          35 25 3 1 3.</_></rects>
      <tilted>0</tilted></_>
    <_>
      <rects>
        <_>
          35 24 5 3 -1.</_>
        <_>
          35 25 5 1 3.</_></rects>
      <tilted>0</tilted></_>
    <_>
      <rects>
        <_>
          36 0 14 2 -1.</_>
        <_>
          36 0 7 1 2.</_>
        <_>
          43 1 7 1 2.</_></rects>
      <tilted>0</tilted></_>
    <_>
      <rects>
        <_>
          36 1 11 8 -1.</_>
        <_>
          36 5 11 4 2.</_></rects>
      <tilted>0</tilted></_>
    <_>
      <rects>
        <_>
          36 21 9 8 -1.</_>
        <_>
          39 21 3 8 3.</_></rects>
      <tilted>0</tilted></_>
    <_>
      <rects>
        <_>
          36 24 1 3 -1.</_>
        <_>
          36 25 1 1 3.</_></rects>
      <tilted>0</tilted></_>
    <_>
      <rects>
        <_>
          36 29 14 1 -1.</_>
        <_>
          43 29 7 1 2.</_></rects>
      <tilted>0</tilted></_>
    <_>
      <rects>
        <_>
          37 17 10 2 -1.</_>
        <_>
          37 17 5 1 2.</_>
        <_>
          42 18 5 1 2.</_></rects>
      <tilted>0</tilted></_>
    <_>
      <rects>
        <_>
          37 33 8 8 -1.</_>
        <_>
          37 33 4 4 2.</_>
        <_>
          41 37 4 4 2.</_></rects>
      <tilted>0</tilted></_>
    <_>
      <rects>
        <_>
          37 41 3 4 -1.</_>
        <_>
          38 41 1 4 3.</_></rects>
      <tilted>0</tilted></_>
    <_>
      <rects>
        <_>
          37 41 11 3 -1.</_>
        <_>
          37 42 11 1 3.</_></rects>
      <tilted>0</tilted></_>
    <_>
      <rects>
        <_>
          38 4 2 22 -1.</_>
        <_>
          39 4 1 22 2.</_></rects>
      <tilted>0</tilted></_>
    <_>
      <rects>
        <_>
          38 8 4 2 -1.</_>
        <_>
          38 8 2 1 2.</_>
        <_>
          40 9 2 1 2.</_></rects>
      <tilted>0</tilted></_>
    <_>
      <rects>
        <_>
          38 20 2 3 -1.</_>
        <_>
          38 21 2 1 3.</_></rects>
      <tilted>0</tilted></_>
    <_>
      <rects>
        <_>
          38 21 10 3 -1.</_>
        <_>
          43 21 5 3 2.</_></rects>
      <tilted>0</tilted></_>
    <_>
      <rects>
        <_>
          39 9 2 3 -1.</_>
        <_>
          39 10 2 1 3.</_></rects>
      <tilted>0</tilted></_>
    <_>
      <rects>
        <_>
          39 14 3 2 -1.</_>
        <_>
          40 14 1 2 3.</_></rects>
      <tilted>0</tilted></_>
    <_>
      <rects>
        <_>
          39 27 8 4 -1.</_>
        <_>
          39 27 4 2 2.</_>
        <_>
          43 29 4 2 2.</_></rects>
      <tilted>0</tilted></_>
    <_>
      <rects>
        <_>
          39 35 3 12 -1.</_>
        <_>
          39 41 3 6 2.</_></rects>
      <tilted>0</tilted></_>
    <_>
      <rects>
        <_>
          39 48 6 2 -1.</_>
        <_>
          39 49 6 1 2.</_></rects>
      <tilted>0</tilted></_>
    <_>
      <rects>
        <_>
          40 29 7 3 -1.</_>
        <_>
          40 30 7 1 3.</_></rects>
      <tilted>0</tilted></_>
    <_>
      <rects>
        <_>
          40 35 6 7 -1.</_>
        <_>
          43 35 3 7 2.</_></rects>
      <tilted>0</tilted></_>
    <_>
      <rects>
        <_>
          41 4 6 1 -1.</_>
        <_>
          44 4 3 1 2.</_></rects>
      <tilted>0</tilted></_>
    <_>
      <rects>
        <_>
          41 5 2 1 -1.</_>
        <_>
          42 5 1 1 2.</_></rects>
      <tilted>0</tilted></_>
    <_>
      <rects>
        <_>
          41 5 2 3 -1.</_>
        <_>
          41 6 2 1 3.</_></rects>
      <tilted>0</tilted></_>
    <_>
      <rects>
        <_>
          42 2 7 48 -1.</_>
        <_>
          42 26 7 24 2.</_></rects>
      <tilted>0</tilted></_>
    <_>
      <rects>
        <_>
          42 3 1 15 -1.</_>
        <_>
          42 8 1 5 3.</_></rects>
      <tilted>0</tilted></_>
    <_>
      <rects>
        <_>
          42 29 6 3 -1.</_>
        <_>
          42 30 6 1 3.</_></rects>
      <tilted>0</tilted></_>
    <_>
      <rects>
        <_>
          43 7 7 4 -1.</_>
        <_>
          43 9 7 2 2.</_></rects>
      <tilted>0</tilted></_>
    <_>
      <rects>
        <_>
          43 8 3 2 -1.</_>
        <_>
          43 9 3 1 2.</_></rects>
      <tilted>0</tilted></_>
    <_>
      <rects>
        <_>
          43 23 6 6 -1.</_>
        <_>
          45 23 2 6 3.</_></rects>
      <tilted>0</tilted></_>
    <_>
      <rects>
        <_>
          43 40 5 3 -1.</_>
        <_>
          43 41 5 1 3.</_></rects>
      <tilted>0</tilted></_>
    <_>
      <rects>
        <_>
          45 48 4 2 -1.</_>
        <_>
          45 48 2 1 2.</_>
        <_>
          47 49 2 1 2.</_></rects>
      <tilted>0</tilted></_>
    <_>
      <rects>
        <_>
          46 0 4 2 -1.</_>
        <_>
          46 0 2 1 2.</_>
        <_>
          48 1 2 1 2.</_></rects>
      <tilted>0</tilted></_>
    <_>
      <rects>
        <_>
          46 37 3 1 -1.</_>
        <_>
          47 37 1 1 3.</_></rects>
      <tilted>0</tilted></_>
    <_>
      <rects>
        <_>
          47 1 2 21 -1.</_>
        <_>
          47 8 2 7 3.</_></rects>
      <tilted>0</tilted></_>
    <_>
      <rects>
        <_>
          48 0 2 1 -1.</_>
        <_>
          49 0 1 1 2.</_></rects>
      <tilted>0</tilted></_>
    <_>
      <rects>
        <_>
          48 0 2 14 -1.</_>
        <_>
          48 0 1 7 2.</_>
        <_>
          49 7 1 7 2.</_></rects>
      <tilted>0</tilted></_>
    <_>
      <rects>
        <_>
          48 1 2 33 -1.</_>
        <_>
          49 1 1 33 2.</_></rects>
      <tilted>0</tilted></_>
    <_>
      <rects>
        <_>
          48 2 2 13 -1.</_>
        <_>
          49 2 1 13 2.</_></rects>
      <tilted>0</tilted></_>
    <_>
      <rects>
        <_>
          48 10 2 4 -1.</_>
        <_>
          49 10 1 4 2.</_></rects>
      <tilted>0</tilted></_>
    <_>
      <rects>
        <_>
          48 19 2 14 -1.</_>
        <_>
          48 19 1 7 2.</_>
        <_>
          49 26 1 7 2.</_></rects>
      <tilted>0</tilted></_>
    <_>
      <rects>
        <_>
          48 23 2 24 -1.</_>
        <_>
          48 23 1 12 2.</_>
        <_>
          49 35 1 12 2.</_></rects>
      <tilted>0</tilted></_>
    <_>
      <rects>
        <_>
          48 26 2 24 -1.</_>
        <_>
          48 26 1 12 2.</_>
        <_>
          49 38 1 12 2.</_></rects>
      <tilted>0</tilted></_>
    <_>
      <rects>
        <_>
          48 35 2 2 -1.</_>
        <_>
          48 35 1 1 2.</_>
        <_>
          49 36 1 1 2.</_></rects>
      <tilted>0</tilted></_>
    <_>
      <rects>
        <_>
          48 46 2 4 -1.</_>
        <_>
          48 46 1 2 2.</_>
        <_>
          49 48 1 2 2.</_></rects>
      <tilted>0</tilted></_>
    <_>
      <rects>
        <_>
          49 0 1 2 -1.</_>
        <_>
          49 1 1 1 2.</_></rects>
      <tilted>0</tilted></_></features></cascade>
</opencv_storage>
